/* Copyright 2016 Google Inc. All Rights Reserved.

Licensed under the Apache License, Version 2.0 (the "License");
you may not use this file except in compliance with the License.
You may obtain a copy of the License at

    http://www.apache.org/licenses/LICENSE-2.0

Unless required by applicable law or agreed to in writing, software
distributed under the License is distributed on an "AS IS" BASIS,
WITHOUT WARRANTIES OR CONDITIONS OF ANY KIND, either express or implied.
See the License for the specific language governing permissions and
limitations under the License.
==============================================================================*/

#include "third_party/cld_3/src/embedding_network_params.h"

namespace chrome_lang_id {

const int EmbeddingNetworkParams::kEmbeddingsNumRows[] = {1000, 5000, 5000, 100};

const int EmbeddingNetworkParams::kEmbeddingsNumCols[] = {16, 16, 16, 16};

const float EmbeddingNetworkParams::kEmbeddingsWeights0[] = {
  -0.79130143, 1.1804522, 1.1543442, -0.008021174, -0.21779463,
  -0.36868238, -0.52394354, -0.48518589, 0.11497443, -0.057635356,
  -0.66461235, 0.61656553, -0.26386458, 0.75683665, 0.81798273,
  -1.0585866, 1.5072205, 0.97547239, 0.16507217, 0.26976061,
  -0.14956042, -0.73936176, -1.2772473, -0.69643056, 1.5155201,
  -1.087678, -0.013252239, -0.99945736, 0.05422914, -0.096992746,
  0.045231644, 0.53787863, -0.2076675, -0.32436648, -0.32805192,
  0.54683352, -0.22281164, 0.62861323, -0.44034404, -0.26398823,
  -0.14521679, -0.65165567, 0.010632917, 0.20292789, -0.092620648,
  -0.1189402, 0.18874617, -0.34549195, 1.9114854, -2.447938,
  -1.0593681, -1.3781611, -1.7291322, -2.0036616, 1.5605179,
  1.4026572, -0.4628118, 0.11527903, 0.61029005, 0.915386,
  0.945149, 0.47738171, -0.13932472, -0.77395016, 1.4846976,
  -0.365341, -1.1116695, 0.21626435, -0.37106559, 0.26149359,
  0.47085011, 0.34441167, 0.052870665, -0.0054291738, -1.6114696,
  -0.78909832, 0.0048245713, -0.29144177, -0.069413923, 0.12613498,
  0.96550483, 0.7240327, 0.20810473, -0.53573853, -0.76279569,
  -0.72532719, -1.4504244, -0.5387907, -1.2802644, 1.1925673,
  0.157759, 0.56804174, -0.59864038, -0.41750807, 0.72932863,
  0.23899467, -0.21709207, -0.099418923, -0.36303812, -0.70918834,
  0.75487685, 0.016710574, -0.33362573, 0.5011493, -0.16885567,
  -0.15234737, 0.079281986, 0.19537008, -1.1375775, 0.74186653,
  -0.050730828, 0.76170319, -0.28826281, 0.58028477, 0.69086879,
  0.26331359, 0.067073345, -0.13567241, -1.5138539, -2.2444038,
  -0.22627991, 0.17463122, 0.08810588, -0.25956908, 0.81876034,
  -0.85648566, -0.61708868, -0.51430064, -0.66309875, -0.11342652,
  -0.76486921, -1.2949939, 0.43405828, 1.1837951, 0.43460053,
  -0.80898517, 1.0665338, -1.8397614, -0.48666543, 0.63248432,
  2.537061, 0.92810959, -0.098128967, 1.2851745, 1.5230082,
  -0.29590714, -0.79661822, 0.039807022, -1.0758456, 0.93353885,
  0.51897621, -0.70013094, 0.59864408, -0.1402247, -0.93824321,
  1.342024, -0.79627854, 0.57404423, -1.5870309, 1.8851123,
  3.0324695, -3.4663351, 1.379022, -1.6385809, -1.7844361,
  0.53406692, -3.1030824, -2.9696155, 0.80646706, -1.3272796,
  -4.3681316, 0.78074753, -1.6880133, -0.64314455, -1.2528775,
  1.8911877, -0.42242616, 1.3205297, -0.2585575, 0.3681511,
  -1.3483964, -0.48269477, 1.0912564, -0.33377948, -0.77498835,
  1.0902295, 0.22479022, -0.45325738, -0.92256445, -1.4117842,
  0.44548786, -0.13582586, 0.61570245, -0.46619618, -0.62629867,
  -0.26196727, 1.5422473, 0.93242562, -1.5048355, 0.64860851,
  0.14198826, 0.39341816, 0.57859379, 0.61300528, 0.80897957,
  -0.32083213, 0.077428974, 0.70948046, 0.32454666, 0.28683802,
  -0.78604329, -0.18768829, 0.62443972, 0.39875752, -0.53485012,
  -0.62716222, -0.078858681, 0.059162375, 0.093305543, 0.2916801,
  0.085720055, -0.33404756, -0.47187877, -0.17778231, -0.62679684,
  0.75780714, -0.50111687, -0.57388133, -0.88956034, 0.65979207,
  -0.36504257, -0.66440576, 0.30081776, 0.86385971, 0.28431532,
  0.84574461, 0.42279729, 0.72499788, -0.52927083, 0.5507769,
  0.51656485, 0.17898011, -0.55716091, 1.646821, 0.25512239,
  0.60698646, -0.529814, -0.64159071, 0.56006187, -0.47876984,
  0.041346755, 0.55235142, -1.0141675, -1.1904557, 0.0064634723,
  -0.013106218, 1.095371, -0.59010971, 0.0892225, -0.61818075,
  0.14047699, -0.65083444, -0.24347949, 0.27708012, 0.34624115,
  -0.48038983, -0.757018, 0.1096077, -0.27261668, 1.1125238,
  -1.2473979, 0.10589092, -1.0169851, 0.12885313, -0.39016768,
  0.5025636, 2.2109733, 1.5959707, -0.72918934, 0.17518507,
  -0.60213482, 1.7163984, -2.3495767, 0.39487758, -1.5526265,
  1.3007249, 0.15043627, 0.820548, 0.57817715, -0.52327263,
  -1.7075027, 0.49395436, -1.2466718, -1.7079587, 0.047530849,
  -0.18909037, 1.2551326, 0.95150369, -0.43641663, 0.32776496,
  0.66330963, 0.60555381, 0.94700205, -0.62898129, 0.038265247,
  -0.62685543, -0.2275961, -0.10237661, -0.41567788, 0.85688114,
  -0.21251667, -0.2701948, 0.22539854, 0.32030958, 0.245664,
  -0.7709372, -0.47221822, -0.10791177, -0.0873416, -0.23145902,
  -0.28836626, 0.89478862, 0.92646986, 0.31595448, 0.56739283,
  -2.3188171, -1.6343632, 1.1196637, 0.64299768, 0.93178767,
  0.8594768, -0.944374, -0.56222945, 0.15546565, 1.3479583,
  -0.35342544, 0.34233993, -1.2617408, 0.36930767, -0.26438102,
  -0.86413181, -1.4328542, -1.682457, -0.19887903, 0.70825022,
  0.021913558, 0.316272, -0.11242975, -0.32543012, -0.75165677,
  -0.17256863, -0.28752682, -1.823351, -0.95939171, -2.1665874,
  -0.37647435, -0.097253978, 0.26123464, -0.47622871, 0.77764416,
  -2.3202, -1.628864, 0.26845279, 0.40223423, -0.036157846,
  -0.39215872, 0.76113975, -1.2501619, -0.561064, 0.60208958,
  0.51574814, -2.699079, -0.84913462, 0.15483484, -3.9118207,
  1.0951, -1.8154631, 0.62476349, 1.2714428, 2.6589496,
  0.98966676, 0.33311492, -0.97275591, 0.985543, -0.059101805,
  1.3394418, -1.0538859, 0.71480745, -0.078507848, 0.81536829,
  0.44373429, 0.081547052, -0.0076771667, 0.2464162, 0.010583888,
  -1.6032165, 1.3139305, -0.70885342, -0.26780841, 1.0653126,
  -0.045056108, 0.80648494, -0.33103245, 1.026391, 0.14883429,
  -0.34996653, -0.43084934, 0.63505805, 0.31925043, 0.042290039,
  0.94355172, -0.074091859, 0.67380542, -0.87472695, 1.9395235,
  0.51742494, 0.38559574, -1.8694972, -0.21961689, 1.2416669,
  0.61265922, -0.59156412, 1.1358514, 1.2918023, -1.9065621,
  -1.018328, 1.086915, -2.0297372, 0.9643333, 1.1220894,
  -1.2570475, -0.047994278, -0.45890406, 0.95896441, -0.16688009,
  1.6285474, -0.47304896, -0.11061526, 0.18377183, -0.62763005,
  0.66246569, 0.70970476, -0.22750813, -0.66472048, 0.2209792,
  0.35462785, 0.682379, 0.045328949, -0.4124856, -0.319502,
  0.2603775, 0.82894278, -0.62738746, -0.61390793, -0.33960202,
  -0.97807038, -1.4862739, 0.733782, 0.40633559, -0.20240486,
  -1.5753021, -1.3249382, 2.4757876, 0.2445638, -1.4696074,
  0.71123904, 1.8122243, -0.34307519, -0.42803344, -1.1850027,
  -0.41919321, 1.5746199, 0.31505403, -0.80497062, 0.47104928,
  -0.44663611, -0.13498096, -0.56045437, 0.71341413, 0.47422394,
  1.4482793, -2.8268514, 2.5390618, 0.3198933, 2.6634457,
  0.72321445, 0.038348678, 0.81020939, -1.6348258, -0.67676437,
  -0.61212087, 0.11011446, -0.70799434, 0.099443734, 0.13391435,
  2.8179421, 1.4724783, -0.5251894, -0.15065353, -2.5783114,
  0.40584505, 1.1223136, 1.191341, -1.3435475, -2.2184021,
  0.72602123, 1.8436747, 0.10059479, -0.12870225, 0.67759317,
  0.03848999, 2.6135807, 0.6147173, -0.86081541, -0.22644477,
  -0.65648127, 0.36255118, -0.31811821, 0.059716739, -1.2623796,
  -0.55272442, 0.072444722, 0.40504846, 1.0006222, -0.48326936,
  0.11936724, 0.68422931, 0.23401636, 2.1233339, 1.8024739,
  -1.9862748, 1.5100592, -2.4598248, -0.58076179, -4.1772847,
  -1.2299116, -1.2072113, 1.5856683, -1.3625463, 1.3371252,
  -2.1809871, -1.6648936, 1.3386261, 1.8604839, 0.93136632,
  1.0963031, 0.14655215, -0.98139429, -0.26597968, 0.18056513,
  0.30684519, -1.5537307, -0.31398252, -0.2006207, 0.29388222,
  -0.12286493, -1.2761521, -0.441261, 0.69338703, 0.10819903,
  -1.7377907, -0.047573674, 0.81960618, -0.99743593, -0.0508047,
  -0.24698216, 0.74808067, 0.43598306, 0.32783216, 0.64549357,
  0.66776472, 0.86915565, 0.052669659, 1.9253045, 0.79895359,
  1.3233528, -0.85780919, -0.014280883, -1.4170829, -0.77918941,
  0.37775081, 2.3435261, -1.5323312, -0.57392567, -0.68948114,
  1.1542313, -0.11738134, 1.1232663, -0.74375153, 1.8056811,
  -0.80685037, -0.86760676, -0.70755744, -0.74503028, 0.36367044,
  -0.98076689, 4.0543102e-05, 0.040658385, 0.072950467, -0.24527188,
  -0.88328093, 0.5414139, -0.085153468, 0.47803533, -1.3786005,
  0.0090159494, 0.87872189, 0.69517636, -0.34312558, -0.64005107,
  -0.26243809, -0.028632849, 0.85447687, -0.1200462, -0.65258855,
  -0.41582662, 0.55713761, -0.75880909, -0.13099755, -0.3272647,
  0.39470389, 0.50194573, -0.34574831, 0.35252485, 1.2341572,
  0.318862, -2.1019912, 0.12530062, 0.083756611, 0.182616,
  -2.0744808, -0.57075441, -1.6189046, 0.48264879, 0.26385319,
  0.15681823, -1.3822192, 0.7063536, 0.98617327, 0.0015012193,
  -0.073274523, 0.69416553, -0.22248971, -0.61170793, -1.0840473,
  0.15683961, 1.496805, -0.38991633, -0.602738, 0.50147086,
  0.085293137, -0.31447271, 0.40771505, -0.13532159, -0.027486693,
  -0.0081935506, 0.040112987, 0.63136756, -0.62535709, 0.70204574,
  -0.0384926, 0.44452071, -0.37590578, 0.22365594, 0.29873607,
  0.14303267, 0.26697358, -0.06853538, 0.060911667, -0.10729763,
  -1.0723386, 0.4749867, 0.52126324, -1.2438607, -0.94741923,
  -1.4163967, 0.56015658, -0.48581657, 0.23167826, 1.0786936,
  0.94513035, 0.26071993, -0.52600205, 1.8278894, 0.15499149,
  -1.7305956, -0.33361229, -0.6664263, 0.51576674, 0.84633672,
  0.53926265, 1.004796, -0.79349262, 0.97182256, -2.0493526,
  -0.77140009, -1.2011862, -0.45849979, -1.892342, -0.13178791,
  -0.9380486, 0.033554822, 1.3466363, -0.91820639, -0.11517743,
  0.5949043, -1.0464771, -0.24715914, -0.09798345, -0.29554644,
  -0.95837295, 0.44861186, 0.63713539, 0.10096879, -0.93879616,
  -0.30244055, -0.67511761, -0.57984865, 0.089409426, -0.82407057,
  0.25823289, 0.10689835, -0.41944745, -0.58016652, 0.20826305,
  -1.5976102, -1.7117099, 0.58886909, -1.1261944, -0.3726773,
  -0.84111059, -0.79238492, 0.16394868, -0.42147782, -0.28215325,
  -0.727121, 0.22834854, -0.55346668, -0.0093300035, 0.47282878,
  -0.90519953, -0.15532649, 0.43462276, -0.1677466, 0.24378188,
  0.28620708, 0.797082, -0.41695496, -0.34519121, -1.1278843,
  0.66643935, 0.0916173, -0.45885646, -0.53072643, -0.12505957,
  0.52715778, -0.60075343, -0.0702575, -0.14510313, -0.4298788,
  0.21554877, -0.091486372, -0.54727018, 0.66638219, -1.7064766,
  -0.32261747, 1.2902174, 1.1279318, 0.52381706, -0.28545853,
  0.056787733, 0.060779631, -0.100674, 0.31932604, -0.062208612,
  0.30223605, 0.060839981, 0.12275848, -0.64008862, 0.74926835,
  -1.2647135, 0.24433322, -0.3632201, 0.0050089615, 0.14461154,
  1.4546242, -0.79223371, 0.78572232, -0.69285047, 1.1368138,
  -0.30229941, 0.47999939, -0.77370882, 0.77591723, 0.79836,
  -0.052116435, 1.1891347, 0.2693021, -0.43510851, 0.8519271,
  -0.9228794, 0.30959436, -0.7713201, -0.88941091, 0.28251526,
  -1.7849299, -0.57777309, -0.10689195, 0.012753294, 0.49331215,
  -0.08447583, -0.17587909, -0.1202035, -0.11598335, 0.35378125,
  0.83469695, -0.43988568, -0.21481963, 0.74132609, -0.17478111,
  0.39475629, -0.75435638, -0.24738313, -0.046120517, 0.28918907,
  0.62092149, 0.039858684, 0.37146619, 0.27267009, 1.3063313,
  0.67297745, -0.50071657, 1.7029542, -1.9430356, 0.79886878,
  0.49801311, -0.014067844, 1.7903169, -0.2072062, -0.86011326,
  -1.2583357, 1.2869306, -0.41279817, 0.035188224, -0.90590566,
  0.91730273, 0.91928256, -1.0622686, 0.99164855, 0.53047085,
  0.11844273, 0.29555666, -0.13229869, -1.0256684, 0.46878874,
  -0.28664827, 1.1284852, 0.87754118, 0.15126, 0.83756328,
  -0.5520547, -1.2419149, 0.26017705, -0.15249075, -0.35596949,
  1.2071335, 0.94043005, -1.4615576, -0.11495711, 0.38346824,
  -0.89785546, -0.85337663, -0.60250509, -0.21882883, 0.36946046,
  -0.55485749, -0.31306052, 1.3799801, 0.19727547, 0.67978346,
  -0.27466008, 0.0778874, -0.61313653, -0.07402318, -0.519928,
  -0.88321573, -0.057530548, -0.32351595, -1.0524901, 0.022574706,
  -0.47583267, -1.175426, 0.68513942, 0.50153852, 0.69920933,
  0.018505661, -1.010013, 0.09985251, -0.76916009, -0.42861754,
  1.1082715, 0.17414251, 0.95740837, 0.90969789, -0.068342887,
  -0.74152386, -1.0534632, 0.25509128, -0.18173683, -0.7108984,
  -0.78929806, 0.58323771, -0.15610331, -0.2108063, -0.17041698,
  0.059701234, 0.37575033, -0.20615172, -0.12750562, -0.059446827,
  -0.71631432, 0.0078225378, -0.12799795, -0.0370011, -0.48903725,
  -0.58541036, -0.24530002, 0.2781485, -0.60452008, -0.068783812,
  -0.62224126, -0.29845116, -0.47982204, -1.411726, -0.66297853,
  0.18951239, 0.06019666, 0.79143006, 1.0956069, -0.2558178,
  0.61368924, -0.18713522, 0.083611183, 0.561452, 0.65994656,
  -0.27300075, -0.23656671, -0.18064292, 0.36522377, -0.89664912,
  -0.67253268, 0.52261955, 0.25351712, 0.14489424, -1.016235,
  -0.093037106, -0.73336846, -0.63312835, -0.13424064, -0.18242821,
  1.3132874, 0.64456463, 0.31794304, 0.62956434, 0.67222708,
  0.074762136, -0.5187223, -0.37307996, -0.16858679, 0.18598971,
  -1.0412486, -0.514523, -0.17978582, -0.301561, 1.028054,
  -0.524566, 0.85989052, -0.35499117, -0.58763629, 0.13944642,
  -0.37425798, -1.1475815, 0.29852945, -0.3424823, -0.11469871,
  1.034745, 1.7479254, -0.55666167, 2.334152, 1.2108992,
  -0.8433882, -0.52145797, -1.0326116, -0.14666612, 0.78413504,
  0.69776213, 1.8073478, 0.40443841, 0.97440916, 1.8621446,
  -0.57749867, 1.4282317, -1.6037838, -0.64882892, -0.49354726,
  -0.56657892, -0.89893645, 1.9871379, 0.72836429, 0.19081175,
  -0.077363826, -0.10908932, 0.22004099, -0.048316676, -0.36759886,
  0.29956302, 0.034340039, -0.043170549, -0.693417, 0.74610567,
  -0.73915392, -0.17911576, 0.0077958051, 0.28259161, 0.21861649,
  -0.2393443, -0.15965609, 0.62895286, -2.0666876, -0.64973617,
  1.1661456, 0.7434715, 2.6160076, -0.60164768, -2.0115638,
  -0.5400725, 0.55740446, 0.20840222, 0.81732231, -0.19485314,
  -1.3353399, 1.5664501, -0.54221022, -0.16344351, -1.528108,
  -0.40171087, -0.35865316, 0.19061279, 0.75293487, -1.0664084,
  -0.45954007, -0.28739578, -0.2441707, -0.32838583, -0.60507625,
  0.22630394, 0.7576344, 0.61353558, 0.26247975, -0.10823393,
  -0.080962069, 0.47410068, -0.094184734, -0.43557894, 0.1037611,
  -0.39241794, -0.036544614, 0.66286236, -1.1607664, 0.31398296,
  -0.20086743, 0.42937234, -0.47397014, 0.50167376, 0.17027536,
  -1.0284357, 0.018125597, 0.22426631, -0.66322976, 1.2024657,
  -1.2533603, 0.29300311, -1.0752958, 0.0091872774, -1.2106497,
  0.37727344, -0.37906253, -0.097308733, 1.4705336, -0.45609665,
  0.42777568, 1.1202102, 1.1566311, -0.28834379, -0.23711722,
  -0.71017921, 0.7017287, 0.12272373, 1.3307562, -0.94096893,
  0.12062327, 0.3793197, 0.20168465, -0.073837847, 0.15532392,
  -0.29891407, -0.167877, -0.050495002, -0.92416757, 0.15771997,
  0.30077049, 0.64715856, 0.238978, 1.470911, 0.68014884,
  -0.060847249, 0.1471142, 0.49941728, 0.88725239, -1.403121,
  0.94643128, -0.54821759, -0.23341632, -0.28578481, -1.0851637,
  -0.21374878, 0.014089654, 0.021782717, 1.7481937, -0.41537914,
  -0.2529451, 0.49441248, -0.4146049, -0.37011215, 0.17771627,
  0.10906009, 0.97797906, -0.63552457, -2.5818849, 0.896695,
  -0.29180256, 1.0943649, 1.1900108, -1.8063366, 2.0657601,
  1.2241904, 1.9180856, 0.37786794, 0.71414232, -0.70060557,
  -0.96044576, -0.0024572876, 0.34717989, 0.041189443, -0.53883785,
  -0.35432351, -0.10965718, -0.2208873, -0.076911911, -0.19594361,
  -0.49987164, -0.060250275, -0.65101075, -0.36662826, -0.29857382,
  -0.94088352, 0.48148647, -0.38182116, 1.5304949, 0.17290789,
  -0.61560404, -1.1996832, 0.030293019, 1.6846576, -1.4974245,
  0.74120086, 0.53863317, 0.55620021, -0.29511958, -0.21651825,
  0.15096636, 0.47582734, -0.84266925, 0.069770172, 0.89042896,
  0.024705397, -0.40487602, 0.57122624, 1.0945673, 1.0308058,
  -1.3927747, 1.0539484, -1.0796201, 0.036772706, -1.0077312,
  -0.44435582, -0.77492493, 1.0206788, 0.11827999, -1.523017,
  -0.87024969, -0.88121331, 0.18910421, 1.4023951, 0.87213957,
  -0.1415655, 0.53921056, -0.20239142, -0.31435892, 0.94420218,
  0.31254086, 0.26399866, -1.4897261, -1.2532953, -0.47762951,
  0.080223441, -0.17468646, -0.45460609, 0.50638169, -0.045013767,
  0.33639354, -1.1232867, -1.3266644, 0.51793379, -1.1463933,
  0.40751186, -0.21523792, 0.71386158, 0.52462983, -0.58312881,
  -1.1793449, -0.44979876, 0.33635888, -0.27046934, -1.3261626,
  -1.3761634, 1.8686062, 0.62689412, -0.33685106, -0.45562467,
  -0.16354613, 0.65828174, 0.97350669, 0.091338642, 0.051768411,
  -0.77726948, -0.12898816, 1.0080938, 1.8342007, 0.528084,
  -1.3329275, -0.91127551, 0.59722596, 1.3808337, 0.30774468,
  -0.81815052, 0.12224133, 1.5323882, -0.85387176, -0.094451964,
  1.7520764, 0.11360932, 1.4012262, -1.373045, 0.42119503,
  0.62913167, -0.56023061, -0.093063071, -0.44525856, 0.14452612,
  -0.49817732, 0.10396811, 0.60279775, 0.32452393, -0.028637061,
  0.9288069, -0.21970908, 0.19245321, 0.2148878, 0.6960001,
  -0.35391849, 1.0265089, 0.30938289, 0.25303411, 0.39367309,
  -0.73323649, -0.35735488, -1.113078, 1.0544055, -0.39099851,
  0.20689334, 0.90270185, 0.50721723, 0.20357938, 1.5614198,
  -0.015534076, 0.062705927, 0.2090649, -0.34651202, 0.42377248,
  -0.68903142, -0.14672232, -0.15390024, -0.29193, 0.33177873,
  -0.79865104, -0.76800132, -0.90328342, -0.77846181, -0.31082857,
  -0.15372808, -0.66623312, 0.60165215, -0.22279391, 0.021276584,
  -0.91743624, 0.54874659, -0.68379784, -1.5382202, 0.29124257,
  0.38025591, 1.6031798, -0.83124179, 0.38264561, 0.10872047,
  0.54367512, -0.71769327, 1.041116, -0.55135524, -0.93195796,
  -0.90458518, 0.727878, 0.30276722, -0.34655792, 0.39857537,
  0.53504515, 0.060028296, 0.042125192, 1.1164922, -0.61495489,
  -0.10344186, -0.33140859, 0.3277756, 0.9548201, -0.86130708,
  0.33428389, -0.18969415, -0.30440623, -0.33670834, -0.512965,
  -0.507097, 0.21996133, 0.27880153, -0.044556331, 0.34850335,
  -0.73390216, 1.0199373, 0.67345518, 0.20201433, -0.28846473,
  0.4795855, -0.8715753, 0.21531422, 0.68489695, 0.50611866,
  0.36277136, -0.5023756, 0.041161988, -0.74441409, 0.89844471,
  -1.5984907, 0.37223339, -0.28330779, 0.68970233, 0.062714227,
  -0.29527673, -0.46093661, 1.1374495, -0.17773624, -0.47217903,
  0.12488396, 0.65157378, 0.10855795, 0.2514787, 1.0013421,
  0.10167183, -0.31272748, -1.1313879, 0.317931, -0.25163525,
  0.022374526, 0.31624758, 0.47490877, -1.0450259, 0.16186044,
  0.24490231, -0.56476384, -0.51228172, -0.68457663, -0.10834513,
  -0.37858921, -0.71489608, -1.3690836, 1.3102417, -0.47397828,
  -0.17351858, -0.020093741, 1.0098194, 0.85713875, 0.59367549,
  1.1372753, -0.67707545, -0.047005307, -0.43713582, 0.145488,
  -0.91359144, -0.13336249, 1.0345821, -0.11594236, 0.23129067,
  -0.4962953, -0.88475275, 0.19077662, 1.2681049, -0.374212,
  1.1298177, -4.1635509, -0.96621144, -0.62218183, -1.6497911,
  -1.2331997, -2.5986729, -0.68314964, 0.78549963, 1.1660465,
  0.82121718, -1.1096566, 1.9380028, -0.30538589, -0.112479,
  -0.44279158, 1.1268131, 0.18106014, -0.9522422, 0.60392058,
  2.9075732, 0.47436535, 0.39467865, -0.22170426, -1.151438,
  0.59751129, 0.92450941, -0.42329448, 1.6099335, 0.76043493,
  -0.82610089, 0.1030855, 0.64373648, 0.16006409, -0.59201634,
  -0.18651354, 0.098659918, -0.28509521, -0.24461482, -0.37899256,
  -0.79263443, -0.37842494, 1.1555986, 0.24014749, 0.22645029,
  0.38220111, 1.1503547, -0.68968713, 1.167127, -1.2929804,
  -0.82786947, 1.3072076, 2.0619626, 1.3303605, -1.6052798,
  -0.12338446, 0.1564047, 0.1183819, 0.86587352, 0.31372508,
  -0.41019142, -0.75712413, 0.11172559, 1.1670114, -2.0013964,
  -0.87259144, -1.7179046, 2.1177008, -0.35518855, -1.4623461,
  1.8729404, -0.59080243, -2.1088724, 2.3690562, -2.3775809,
  0.73075396, -2.1687567, -2.5276179, 1.582973, -0.64571047,
  0.80838734, 0.33709583, 0.84679025, -1.4560431, -0.36993429,
  -1.5933884, -1.0950633, -0.92793715, 0.91337496, 0.0072634,
  -0.5429346, 1.4692571, -1.02877, 0.12830307, 0.43289471,
  0.32338187, -0.32261088, -1.3947613, -0.70440286, 1.1112305,
  1.0804063, 1.1421155, 0.67637241, -0.3358227, -3.0141838,
  -0.25938222, 0.80637574, 0.24225684, -2.108217, 0.009534914,
  1.2244394, -0.29834771, 1.0313672, -0.39169997, 1.2168486,
  -0.61056036, -0.51524049, -0.36130631, 0.10080618, -0.045653153,
  0.38885832, 0.49057725, 2.4278665, -1.1009728, 1.8007745,
  -0.15088645, -0.644795, 1.8516744, -1.3500131, -0.5297671,
  0.36559686, 0.95552206, 0.741962, 0.3662388, -1.4107727,
  -1.2264172, 2.3030288, -0.71673018, 0.19780117, 0.3634885,
  0.23492166, -0.28807339, 0.21482892, 0.60650855, 1.1913925,
  0.83045703, 0.27842298, -0.17565823, 0.23420452, 0.6615321,
  0.41510984, -0.86690342, 0.24279204, -0.27160442, -0.86273813,
  1.5618128, -0.25601354, -0.67376655, 0.88346779, -1.2879623,
  0.2174049, -0.60106438, -0.31345215, -0.15794626, -0.53656864,
  -0.9720158, -1.1075503, -0.072991617, 0.08980073, -0.90956771,
  0.50671446, -1.5277091, -0.64936036, 1.7461044, 2.1267874,
  0.79438847, -0.72444069, 0.36842057, 0.67814881, 1.3002403,
  -0.30062389, -0.99370611, -0.023093851, -0.25005859, 1.0203279,
  -0.98755568, 0.92142832, -0.21825556, 0.85975468, 0.74029,
  0.27969247, 0.94590467, -0.80579042, -0.28887635, -1.4803002,
  -1.8939542, -0.13448039, 0.91951704, 0.13367829, 0.18803214,
  -0.051588435, -0.38748816, 0.71431094, 0.39979061, 0.86427128,
  -2.278259, 0.26210234, 0.1372183, -0.14083984, -0.7105943,
  -1.1774349, -0.85258186, -0.4832685, -2.455447, 0.33386993,
  0.52669162, -0.8770088, -1.0851563, 0.39959654, 0.22949596,
  -0.21348517, -0.39385709, 1.2223363, 2.2446237, 1.2134805,
  -3.4211855, -0.27703089, 3.1253839, 1.5920703, -1.8766408,
  -0.12465288, 4.9817176, -2.0954762, -4.6816511, -0.57292992,
  -6.205842, -2.0777266, -0.80202663, -2.9054089, 0.23992005,
  -0.51741409, 1.3718952, -0.40408394, 1.0008905, -0.047003515,
  0.33538982, -0.83338928, 0.30444616, -0.29171461, 1.0036248,
  -0.14845964, -1.3511397, 0.56942636, 0.10596266, -0.51630127,
  -0.076412186, 0.2108801, -0.2623955, 0.031417444, 0.359176,
  0.520147, 0.58080935, -0.35532311, 0.05055261, 0.8631295,
  0.56758636, -0.0046251155, -0.092536248, -0.40758955, 0.4914555,
  -0.18934959, 1.243228, -0.42162839, -0.048002668, -0.87446463,
  1.6662203, -0.97899866, -1.0549529, 0.92564178, 0.28608948,
  -0.31539741, 0.0069499118, -0.019088449, 0.70354408, -0.58544856,
  -0.49427179, 0.84007668, -0.3905502, 0.38027069, -0.9250707,
  -0.21513779, 0.58067429, -1.4741476, 0.6472044, 1.5396278,
  0.18941988, -0.15731619, 0.13876918, 0.85479885, 0.82903129,
  -0.35868096, -0.53294879, 0.083320618, 0.047761425, -0.72984785,
  1.9935921, 0.44185287, 0.96584022, 1.3708038, -0.1522699,
  0.58101362, -0.27815348, 0.028739676, 0.18647091, -1.3221267,
  1.3032559, 0.47830871, -0.457351, 1.0562589, 0.33030877,
  -0.15187813, -0.25838661, 0.6971705, 0.96081555, -0.42860132,
  -0.6825757, -0.23166607, 0.23335846, 1.0128713, -0.907109,
  1.0427721, -0.052442361, 0.64344078, 0.21919484, 0.73483992,
  0.8625614, -0.88828629, -0.86107707, -0.76891452, -0.016249159,
  0.10339088, 0.44858682, -0.10865934, -0.433479, 0.59614736,
  0.74908149, 0.0059667584, -0.77496886, -1.0524092, -0.058914378,
  -0.4901599, -0.079764374, 0.59841895, -0.86061436, 0.49532491,
  -0.31186596, -0.12942092, -1.2091691, -0.40670165, -1.2696474,
  0.78744644, 0.29524347, -0.39672813, -0.2664797, -0.334087,
  -0.3357676, -0.47404155, 0.19322787, -0.23158132, -0.64474732,
  0.59015411, 0.80056405, 0.48686054, 0.83306152, 0.70930582,
  -0.4754853, -0.096193261, -0.49440297, 0.26323882, 0.33197951,
  0.32418337, 0.12073816, -0.445616, -1.9266034, 0.86908525,
  -0.43399325, -0.3041214, 2.2458346, -0.62392026, 1.2361435,
  -0.22176006, -0.024469698, 0.054941174, 0.11834889, -1.5405105,
  -1.1880462, -0.25302705, 0.72605562, 2.2941656, 1.0368779,
  -0.69524819, -0.16039579, -0.56459904, -1.0584974, -0.31758356,
  0.5659489, 0.0003319119, -0.30734235, 0.69689482, -0.49922422,
  0.70396441, -1.5051826, -0.37015393, -0.46267971, -0.73938638,
  0.22798336, -0.96043056, -0.21904296, -0.14313875, 0.017861614,
  -0.62374455, 0.19604695, 0.53858584, 0.47421998, -0.47085035,
  0.015384938, 0.18912363, -0.077318914, -1.0786228, 0.07238701,
  -1.6721786, -0.75257134, 0.1609785, -0.75219119, 0.68735731,
  -0.59807545, 0.21265042, 0.70039529, -0.78795266, -0.8529737,
  0.073292591, 0.23986457, 0.37163916, -0.38523474, 0.1610685,
  0.2031666, -0.48268792, 0.16794041, 0.90912044, -1.1726402,
  -1.0158309, -0.95213342, 0.425279, 0.60234588, -0.44480649,
  0.30399054, 0.49575371, -1.3205979, 0.45801768, -0.17650922,
  -0.13576555, 0.21298787, 0.65923667, -0.6707105, 1.026971,
  -0.819298, 0.40012258, -0.19865921, 1.0636803, 0.068176366,
  -0.60960042, 0.61221957, 0.97257864, -0.18251897, -0.12376203,
  1.0025148, -0.14705132, 0.81133467, -0.65328139, 1.6526934,
  -0.070579141, 0.77018005, -1.0857857, -0.53577608, -0.76826614,
  -0.21004178, 0.34313259, 2.1419024, -1.8871232, 0.037579753,
  -0.3091045, -0.73690152, 0.50975895, -0.24781361, -0.7261889,
  0.14856018, 1.0878553, 0.17114636, 0.651234, 0.82148135,
  -0.12024929, 0.082822435, 0.80890059, 0.49030554, 0.21650058,
  -0.61948794, -0.32585749, -0.15596439, 0.50872386, 0.63497853,
  -0.11440212, -0.89272207, -1.1009254, -0.56366581, -0.65607393,
  1.86064, 0.060238555, 0.9513486, -0.10876393, 1.151736,
  -0.21930023, -0.07753332, 0.020283783, -0.41695642, 0.14298959,
  -0.95304346, -0.33908927, 1.3527728, -0.90355337, 0.11282598,
  -0.025298981, 0.48312387, 0.82878411, -0.61081421, -0.38363975,
  0.78924495, -0.080140658, 1.2512257, -0.0032067969, -0.17190054,
  -0.46726483, 0.77130663, 0.46276686, 0.33074206, -0.51158845,
  -3.1810226, 1.9581287, -0.30108979, -0.5815, 2.0636373,
  1.1998063, -2.3945937, 3.68988, -3.0009453, -0.32532582,
  0.78774488, 4.4412594, -0.42573407, 0.62313735, -0.028436938,
  -0.53886777, -0.90827608, -0.69477624, 0.37007254, -0.18711033,
  1.1139871, -0.4380556, -0.32638362, 1.1610774, -0.15555996,
  0.76431096, 0.48604488, 0.9788332, -2.3505282, 0.4864994,
  -1.3729627, 0.81974828, -1.7740649, 1.1217362, -0.68616265,
  -2.2880478, -1.2830423, 0.1220945, -2.0132885, 0.22104672,
  1.3378274, -0.8862704, -0.91301888, 0.99069911, -0.35809821,
  0.47512463, 0.63826704, 0.085810624, -0.51792377, 0.61676174,
  -0.41726413, -1.5367283, -0.43167016, 0.81310427, 0.62361509,
  -0.24665901, 0.51079381, -0.19744188, -1.0025911, -1.7148019,
  0.32105663, -1.2847017, -2.1027741, 0.32434276, 0.0641952,
  1.2472224, -0.019023277, -0.60169244, -0.1768769, -0.44011894,
  -0.54400486, -0.34390888, 0.09377531, -1.0414854, 0.83411407,
  -0.25264746, -1.1981145, -0.25791866, 0.36267585, -0.1485955,
  0.79351103, 0.65800732, -0.69771612, -0.48554969, 0.46189561,
  -0.32452023, 0.73673183, 0.86474919, -0.13512971, 0.063287124,
  0.17763104, -0.66738218, -0.51336223, 0.16024968, 0.018904163,
  1.1598063, -0.2014984, 0.05015311, -1.0054288, 0.29673874,
  0.63808286, 0.47239739, 0.71776611, 0.46720016, -0.53831691,
  0.060753744, -0.26834276, -1.1980288, -0.056201115, -1.2770267,
  0.37817639, 0.72249389, -0.12370455, -1.1894349, -1.5510845,
  0.64963835, 0.85201627, -0.50997114, 0.64708596, 1.2455074,
  -0.29996705, 1.1308239, 0.4588919, -1.1964573, -0.70156634,
  -0.44731709, 0.3561866, -0.45515993, -0.6746912, -0.96409029,
  0.17909895, 0.21229875, 0.52125227, 0.504111, -0.36919734,
  0.25041923, -0.51776469, 0.56616163, -0.33676431, -0.66594994,
  -1.2931232, 0.45850754, 1.8922842, -0.1504868, 0.084256694,
  -1.0212837, -1.3165532, 1.4397615, 1.9675885, -1.2113349,
  -0.49475688, 1.7301561, 0.21472643, 0.76037967, -0.396095,
  -0.44784567, -1.0086297, -0.53076088, 1.0983628, 0.10730596,
  0.66833544, -0.048923675, 0.35110211, -0.36627376, 0.74874282,
  1.2364714, 0.11112622, 0.94992477, 0.88889074, -0.58610815,
  -0.77258283, 0.66932142, 0.86458904, -1.1498533, 2.0292945,
  0.33378321, 0.26344639, -0.31727558, -0.19654822, 1.0320742,
  0.21430436, 0.17686622, -0.49638793, -3.0481815, 0.68483281,
  -0.94278538, 1.4909174, 0.30467525, -1.6025412, -0.19852126,
  -0.32946342, -0.66167653, -0.74455845, -1.3843399, -1.6763732,
  1.0169222, 2.1325753, 0.18903485, 0.079765975, -1.6781631,
  0.3617664, -0.84113324, 1.2606242, -2.4609065, -1.7358408,
  -1.4075459, -0.7328192, -1.54574, -0.096412495, 0.15538779,
  -0.38071093, -0.86238211, -0.4062748, -1.0812162, -1.5713229,
  0.66291833, -1.6442327, -0.097468391, -1.4765772, 0.5998503,
  0.54509079, -0.44122946, 0.64231282, -0.21568945, 1.2422639,
  0.41601461, 0.16670732, 0.17211916, -1.0516077, 0.23768641,
  -0.054829553, -0.11099543, 0.49998572, 0.6654495, -0.10004224,
  0.64209074, 0.18707898, 0.47988975, 0.43708336, -1.3034565,
  -1.4159461, 0.81759459, -1.0281186, 0.0020029477, -0.40869051,
  -0.10114457, -1.317474, -0.10153398, -0.54750204, 0.85191065,
  -0.044495258, -1.1879159, -0.023007385, -1.2747582, 0.39382595,
  0.70866472, -0.0029963388, -0.78040528, 0.3183136, -0.046759512,
  0.2357638, -0.00851039, 0.030505499, -0.22650889, -0.033817634,
  0.24974822, -0.73694283, -0.84743321, -0.39822078, -0.023410883,
  1.7200161, -0.75324535, 0.46886578, -0.9912582, -1.600522,
  -0.063131064, 0.26377642, 0.1520436, 0.62880337, 0.40197363,
  -0.46454504, 0.53963542, 0.63096774, 0.075837605, -1.0429617,
  -0.75370991, 0.036053341, 1.44693, 0.088778652, 0.33612195,
  0.06542965, -0.02446015, -0.9411121, -0.54019725, -0.29951358,
  1.9959925, 0.93351018, -0.083631307, 0.1974988, 0.15102164,
  1.7069839, 0.35964966, 1.1408391, -1.02878, -0.60481936,
  -0.5077666, 1.132929, 0.50585109, 0.5185011, 0.32942927,
  1.6505363, 0.68863213, 0.059234425, 0.16022666, -0.28125623,
  -1.0072711, 0.763429, 0.56677341, 0.39718381, -0.13994376,
  0.17283182, 0.5497663, -0.44942048, -1.1313202, -1.5751261,
  0.53584522, 0.57011181, 1.1062794, 0.05344538, 0.8595435,
  -0.43527448, -0.53770059, 0.6404624, 0.37677705, 0.059028093,
  -0.58745128, 1.0121728, 0.50692558, -0.010790049, 0.080677696,
  -0.10144114, -0.56301081, 0.65581977, 1.1740866, -0.51794386,
  -1.5325485, 0.22495094, 1.5080675, 1.7107154, 1.8573371,
  2.5817134, 0.11304455, 0.33601132, -0.51384711, -0.079684541,
  -0.91144, -1.3337067, 0.4154841, 1.1603084, 0.44602183,
  -0.0016427671, -1.2618083, 0.39883265, 0.22596519, 0.2405061,
  0.30167016, -0.65462166, -0.46731511, 0.84367216, -0.43640676,
  0.15862705, -0.77854788, 1.1983898, -0.33882585, 0.040193174,
  -0.49407941, 0.18762846, -0.52541471, -0.89903796, 0.022708215,
  -0.21808814, -0.081984617, -1.1019316, 0.77624691, -0.51254225,
  -0.34824136, -1.6332135, -1.3285165, -1.382232, -0.43276766,
  0.33263606, -0.37103108, -0.731767, -0.53749007, 0.12017001,
  -0.039622717, -0.69668293, -1.834061, -0.72149682, -0.77421194,
  0.31288156, -0.79743624, -1.6344945, -0.38155437, -1.7831734,
  0.36612195, -0.37378836, 0.059750803, -1.5534477, 1.6263424,
  -2.1057091, 1.5655525, -0.63335967, 0.77469367, 0.85304904,
  0.82997179, 0.062103845, 0.95200658, 0.27937648, -0.90053535,
  -1.2096342, 0.54343784, 0.92054492, 0.16157398, 1.5273257,
  0.15658185, 1.7366325, -0.3325254, 0.59503359, -0.31998345,
  -0.23194818, 0.62790316, 0.094259009, -0.78052855, 0.43846962,
  -0.54159588, 0.520702, -0.039919358, -0.63389516, 1.0835407,
  0.43036994, -0.56665307, -0.046375159, 0.02190542, 0.35889065,
  -0.06646616, 0.14244394, -1.0998628, -0.070229016, 0.0910259,
  0.73945057, 0.74847615, -0.09392599, 0.40442652, -0.60710806,
  0.28097615, 0.00067229586, -0.56775904, -0.85568333, 0.27212608,
  0.32996413, -0.02511766, -0.20248166, 1.1760342, -1.68165,
  1.0309289, -1.4647855, 0.67840028, 0.35651773, -0.14338818,
  -0.7671774, 1.3066158, 0.045356423, -0.17128769, -0.4773106,
  0.84115028, -0.096433729, -0.17943987, 0.21021865, -0.6811105,
  1.5513575, 1.531361, 0.65431648, 1.2030621, 1.0660973,
  0.14406425, -0.74038023, 1.0895901, -0.58676958, -0.78464794,
  0.28411493, -1.4822553, -0.030952422, 0.09537705, -0.82241732,
  2.3874931, -0.50669032, 0.13186879, 0.96096236, 0.20687604,
  0.39999869, -0.38157147, 0.53220153, 0.81268251, 1.2750341,
  -0.48792425, -0.98674166, -0.39021453, 1.6575536, 1.6477047,
  0.30502254, -0.38789544, -0.60437816, 0.023339324, 0.68666,
  -0.49650958, 0.83162308, -1.0570301, -2.2739766, 1.0085372,
  0.91219789, -0.0994805, -0.98587334, 0.57489341, 0.70885611,
  1.4133766, 0.58185214, 1.8461097, -1.2403221, -0.13028035,
  -1.3910912, 0.93754935, -1.0706266, -1.3194321, -0.13626198,
  1.0218289, 0.3304837, 0.8750838, -0.30664968, 0.37957868,
  0.089845471, 0.52337646, -0.29954523, 0.60688418, -0.50520515,
  0.51310211, -1.0663625, -1.436, -0.039924689, -1.0842056,
  -0.81779873, -0.92604953, 0.099733368, 1.7950159, -0.13659213,
  0.50443769, -1.3813382, 0.39915079, -0.0014707302, 1.2739711,
  1.1411896, -0.70747733, -0.24140637, 0.37679964, 0.55419189,
  0.6085642, -2.0473502, -0.26926407, 0.42052618, 0.33888519,
  -0.8326574, -0.71602207, 1.2374978, -0.51851773, 0.21416534,
  -0.016594296, 0.048789017, -0.60603291, -0.7036376, -1.0952615,
  -0.28729805, -0.042509008, -0.065847591, 0.79535317, 0.66705334,
  -0.33102629, 1.1481692, -0.34181488, 0.51384169, -1.1253645,
  -0.40873775, 0.36528042, -0.20445698, -0.32897592, 0.33236095,
  0.029679475, 0.34965816, -0.26357064, -0.24134685, -1.1889235,
  -0.39151868, 0.15396711, -0.37480474, 0.75312078, 0.25994062,
  0.046954766, 0.55950576, 0.24700791, 1.3757151, -1.1618545,
  0.4109492, 0.55530751, -0.04077014, -0.25483522, -0.71512187,
  -0.55815321, -0.048797544, -0.7447089, -0.10626964, -0.68356663,
  0.29740614, -0.70260108, -1.0705115, 0.65283471, 0.40935987,
  0.12150272, -0.013491774, -1.0620055, -0.31497109, 0.51612061,
  -0.56189215, 0.0061326791, 1.1587878, -0.87726641, 0.08924035,
  -0.40035743, 0.28406495, -0.36789942, 1.1511149, -0.48356298,
  -0.23926193, -0.7802121, -0.27858075, -1.1232268, 1.6248521,
  0.96991307, 1.047953, 0.83764458, -0.73426038, 0.22577608,
  -0.89577782, -0.573776, -0.31889737, -0.24266674, -0.049810607,
  -1.5323623, 0.75922775, -0.1938635, -0.71433383, -0.05257101,
  0.29895043, -0.90534455, 0.52849996, 0.80876046, -1.4386463,
  -0.04800839, -0.31158793, -0.81662697, -0.4770571, -0.90780139,
  -0.053205024, 0.40753874, -0.87090647, -0.30360165, -0.35440657,
  0.021435471, 0.22044222, 0.2504836, 0.79566538, 1.0153971,
  -0.37182608, -0.16286793, -0.49567744, -0.38223618, -0.30408597,
  0.75333822, -0.63157564, 1.3660728, -0.053389847, 0.22757968,
  1.5744325, 0.3228963, -1.5271654, -0.005204909, 0.0065973853,
  -0.00786013, -0.12714222, 0.02865437, -1.4334521, 0.51478744,
  -0.7995826, -0.85143822, -0.54060239, 0.31829256, 0.17589636,
  0.19852218, 1.2346972, 1.2507049, 0.5029586, 1.3739789,
  -1.5761127, 0.97288114, 0.17010094, -0.72006619, 0.99071413,
  -0.23315749, 0.20787711, -0.69160604, 0.175748, 1.9295619,
  0.055032738, -0.61769062, 0.815746, 2.0918124, 0.34304336,
  0.66476947, 0.17568944, 1.0241625, -1.1409037, 1.5633709,
  -0.6986146, 0.65634042, -2.1782908, 0.53234476, 0.22353627,
  -0.527237, 0.13241498, 1.0382475, -0.0026434853, 0.77675426,
  -0.42364845, 0.61341894, 1.0484998, 0.49831346, -1.7033285,
  -0.24492323, -0.96953803, -1.1881565, -0.17875768, -0.82023472,
  0.32874537, 1.1327004, -0.69087976, -0.0079865614, 1.7292649,
  0.12426887, 0.37682024, 0.33603367, 0.79613793, 0.087736167,
  -0.39346009, -0.59010482, 1.2234594, 0.40572798, -1.1172796,
  -0.87833941, -0.72469926, -0.63016009, -1.113045, -0.02782248,
  -0.68176377, 0.59587765, -1.1635728, -0.25532973, -1.1837484,
  -0.01516878, -0.42728478, 2.2981169, 0.45750049, -0.28724617,
  0.02749048, 1.273216, 0.45793995, 0.858782, -0.13435614,
  -0.26195922, 0.50296223, -0.21427941, -0.87172621, 0.10595544,
  0.17350039, 0.054297004, -0.2516309, -0.94277507, -0.66613317,
  0.13020827, 0.39131263, 0.14608872, 1.6107241, -0.42436314,
  0.6171096, -2.385108, -0.7879042, 0.94292694, -3.1976759,
  -0.066398725, 1.5352727, -1.2794029, -1.6202358, 0.25218526,
  1.8976886, 1.6931746, 2.6756828, 0.63403732, 1.0226132,
  0.70347959, -1.0102534, 0.05015083, 0.37138924, 1.547088,
  -0.97495508, -0.54763228, 0.62503594, -0.082313351, -1.0777799,
  1.3339534, -0.34776834, 0.67323679, -0.61268657, 0.8124069,
  0.19356214, -0.70363265, -0.13385721, 0.0074653751, 0.20789066,
  0.19317687, 0.0079660462, -0.6999886, 0.42339224, 0.68443662,
  1.2513756, 0.13315234, 0.66558844, -0.22921278, 1.5803641,
  0.8799184, 0.11980504, -0.22357124, 0.21996734, 0.89747429,
  1.4353195, -0.20914036, 0.033319324, 0.46700993, 0.94259524,
  1.6956428, 0.33579302, -0.30108914, -1.6807489, 1.4500877,
  0.79703712, 1.7403164, 0.9894523, 0.19411883, -0.71021932,
  -0.35958138, -1.4104996, 0.48329607, -0.73912716, 0.10623048,
  0.33900797, -0.53572106, -1.3346211, 1.4583387, -0.48276818,
  -0.48065826, 0.20061944, -0.1456037, 0.098670349, -0.31893516,
  0.2410204, 0.29404047, -0.6543625, 0.21505333, -0.72093332,
  0.37141621, 0.49488559, -0.81366247, -1.440017, 0.028762154,
  -0.38167036, 0.065618038, 0.075728595, 0.57543921, 1.0513594,
  0.43015122, 0.20558317, 0.78754312, 0.085026152, 1.4738796,
  1.7126635, -0.20632513, 0.79685771, -0.74774736, -0.011621558,
  -0.024084272, 0.11022404, 0.088816985, 0.37602213, 1.4226464,
  -0.21705167, -0.45587125, -0.3626754, -0.61145568, 1.0255727,
  -0.19256811, 0.21828794, 0.012787517, 0.5139671, -0.041359223,
  0.4717176, 0.039554495, -0.29779327, 0.25693044, -0.31363037,
  0.82348371, 0.98846942, -0.1649048, -0.2506406, -0.19245909,
  -0.1825462, -0.27049357, 0.13582987, -0.20175704, -0.067434341,
  -0.070458055, -0.81580645, 0.083756082, -1.0499535, -1.3354498,
  0.79509693, -0.28936446, 0.65416789, -0.42112064, -0.18846244,
  -0.57454264, 0.049300283, -0.93133646, 0.15047266, 0.52276313,
  0.78535783, -0.82765448, 0.12674977, 0.20549117, 0.12554151,
  1.1187944, 0.17611547, -0.31277198, -0.24752083, -0.19806519,
  0.25461438, -1.2878208, 0.62970775, 0.75453055, -0.085640162,
  -0.68138748, 0.277513, 0.23611401, -0.41916507, -1.3717959,
  -1.4270737, 0.17451252, -0.057824448, -1.3141354, -0.49439064,
  -0.017536066, 0.629162, 0.65068805, 0.54912049, 0.014534299,
  0.0069396487, -0.36469784, 1.5153693, 0.6136114, 0.7369135,
  1.3049288, -0.19352104, -0.75613236, 1.6802328, -0.01907642,
  0.35461, -0.16126895, 1.2255276, -1.2774341, -0.78764027,
  -0.37827125, 0.68543, 0.0096159689, 0.034310121, -0.11265138,
  -0.17504108, 1.5133489, -0.89866477, -0.14504321, -1.5294241,
  0.701981, 0.24184962, -3.6284258, 1.3491786, -0.55894363,
  -0.32356179, -1.6833586, 0.2135099, -0.2331261, -0.51913458,
  0.19421858, -1.396791, 1.270256, -1.2324568, 0.034021419,
  -0.069232874, 1.58387, 1.0389215, 0.2892485, -0.019661384,
  0.28735846, 0.57340717, 0.68449545, -0.13427223, -0.70889479,
  0.7682429, -0.61798584, 0.14832325, 1.04076, -0.023753492,
  -0.4400402, 1.1469845, 1.1028647, -0.18230221, 0.55445921,
  -1.1281193, 0.13703947, -0.46758902, 0.55684757, -0.43109211,
  -0.35299328, 0.85867923, 0.47285241, -0.23316506, 0.35731372,
  -0.14823329, -0.56331754, 0.21636522, 0.30679768, 0.40968031,
  1.047922, -0.52363348, -0.52443647, -0.019785449, 0.059117015,
  0.21256407, -0.66324937, -0.16523826, -0.076547734, 0.503046,
  -0.97241771, 0.17482893, -0.11701807, 0.94229394, -0.92691278,
  -1.0900027, 0.82992548, -2.62636, 1.7448134, 0.11108194,
  -0.98054129, -0.27081868, -0.69737244, -1.9280992, 1.6800646,
  0.46021739, -0.84383738, 0.29649428, -1.8715773, -0.6692369,
  0.67271554, 0.16269773, 0.55743229, 0.3773514, 1.3573115,
  -0.35673451, -2.0682416, 1.2412989, 0.728363, 0.42424744,
  2.158181, -0.73733443, -1.0985194, -0.50573325, 0.44114292,
  -1.2830328, -0.78217334, 0.17282775, -0.92113209, -0.99399936,
  -0.067649148, -0.049942389, -0.22276038, 1.6556939, -0.48354188,
  -0.61574769, 0.38913965, 0.12373177, 0.28049642, 0.29210907,
  -0.457754, -0.98575741, 0.74866265, -0.021471046, -0.68364716,
  -0.31950453, 0.0078892382, 0.89047247, 0.48808935, -0.37825298,
  -1.2541093, 0.67390597, 0.78129113, 0.84113127, -0.41467184,
  -0.24861504, 0.55859679, -0.84909284, 0.97189933, 3.018707,
  0.29976627, -2.307909, -0.0727178, 1.3655295, 2.1252956,
  -2.4629107, -1.8087748, 0.31283933, -0.090875506, -0.5433588,
  1.5064958, 1.5799831, 2.4859, 0.27860308, 1.516506,
  1.59311, 0.49401897, 0.087391481, 0.19204237, -0.24555853,
  1.0361762, -0.007806235, -0.86742342, -0.03098374, 0.53070515,
  0.11294422, 0.70693195, -0.42029327, -0.5982278, 0.22557619,
  -0.48043689, 1.6662098, -1.3540853, -0.73212129, -0.21994954,
  0.620825, 0.20934036, -1.102771, -1.2023951, -1.4920382,
  -0.19682549, 1.1776663, 0.089027412, 0.79272455, 1.175782,
  -0.23379482, 0.42268252, 0.1954926, 0.73312944, 0.35569882,
  -0.191647, 0.0092918258, 0.22550732, 0.18158536, 0.14788479,
  0.034977697, 0.27372566, 0.32761574, -0.62527847, 0.14722227,
  0.061827231, 0.020386374, -0.0278387, 1.4105415, 0.89801538,
  -0.45145047, 0.51898825, 0.78873056, 3.19661, 0.95283419,
  -0.35682261, -0.24345386, 1.3544225, 2.7782352, -1.0030719,
  0.99610925, -0.40578946, 0.40162528, -1.160592, -0.23342246,
  2.2903407, 0.40028706, -1.0091753, -0.40029889, -0.50643718,
  -0.032362998, -0.47029731, 0.077446915, -0.084310412, 0.37303445,
  -0.090728357, 0.87305665, 0.27856043, 0.40672591, -0.6691826,
  0.710693, -1.6079471, -0.07181827, -0.28663063, 0.35231611,
  0.52477628, -0.15812044, -1.0674275, 0.46489587, 0.26477566,
  0.68300539, -0.30943614, -1.1621943, -0.65312517, 0.5926984,
  -0.91081923, 1.2289116, 0.046871409, -0.48845312, 0.334904,
  0.061988197, 1.9301535, -0.23551273, -0.42048103, -0.64849484,
  -0.14503276, -0.16019909, 0.2985076, 0.84504646, -0.61846244,
  -0.26990834, 0.17084749, 0.8119567, 1.3025085, -0.34382558,
  -0.38320789, 0.3829529, 0.82349974, 0.40650553, -0.34623682,
  -0.88648236, 0.39836767, -0.061357547, 0.42854074, -0.53100431,
  -0.12726925, -1.2300684, 0.014967538, -0.14205247, 0.23730123,
  -1.1513757, -1.2109249, -0.46330774, -0.094453171, 0.77238327,
  -1.5240747, -1.1416918, -0.75576204, -0.1469235, -0.17804202,
  -0.43598938, 0.14343096, -0.062487818, 0.46648073, -1.3764397,
  0.15210819, -0.14261733, 0.87027884, 0.69498682, -1.0786406,
  -0.29194802, 0.10749447, 0.80247319, -0.87428707, 0.29731327,
  -0.68756521, 0.24729192, -0.16249642, 0.11685143, 0.40472633,
  0.7058686, -0.77337021, -0.88958961, 0.65933144, 0.009724508,
  -0.20567675, 1.4631722, -0.4393096, 0.048723273, 0.96865958,
  2.3384788, 0.12395533, -0.66346788, 0.38946548, 0.3141045,
  0.09110415, 0.89522368, -0.96891618, 0.42289147, -0.030747756,
  -0.14216825, 0.839517, -0.13830356, -0.6635834, -0.058278784,
  0.62943906, 0.15277059, 1.2682523, -0.38755882, -0.018600779,
  0.402839, 0.71066678, 1.3416392, -1.5213212, -0.46852756,
  1.0088162, -0.72748214, -0.5592829, 0.19203529, -2.8403852,
  0.845919, 0.11465109, -0.029653769, 1.2702481, -2.5406787,
  1.7570786, -0.32619926, 0.90630686, -0.21972169, 0.6589607,
  -0.52919388, 0.23474394, 0.83109254, -0.13074222, -1.7863859,
  -0.52931821, 0.65674567, -0.5508557, -1.9480184, -0.45994475,
  -0.76188356, 1.4195528, -0.9512285, -0.026638063, 0.42226174,
  -0.36685988, -0.39020777, -0.18738042, 0.90899086, 0.55165046,
  2.0152209, 0.69605136, 0.78368407, 1.9591206, 0.6062215,
  1.3827035, 0.3989231, 0.75473225, -0.70967031, 1.1645076,
  -0.57985193, 0.58835149, 0.053575214, -0.1623062, -0.38019019,
  0.040720351, 0.94241089, 0.66917378, -0.057140414, -0.914636,
  -0.10078108, -0.99904013, -0.72639, -0.50725454, -0.20449372,
  -0.85262364, -0.87626088, 0.12846261, 0.22578456, 0.30148992,
  0.53413272, 0.00035023096, 0.23552148, -1.3776665, 0.65473217,
  0.58370095, -0.75329983, -0.27408582, -1.0652646, -0.20948645,
  0.71877718, 1.3073969, 1.8023022, -0.94004422, -0.77842933,
  0.91277754, 0.74162531, -0.44471687, 0.21828462, 2.1452801,
  -0.044325594, -1.4507518, 0.47191447, 1.246587, 0.59335458,
  -1.0567737, 0.10458475, -0.40455505, 0.45376012, 0.19433188,
  0.2543672, -1.2745548, -0.39311871, -1.3422709, 0.64663655,
  -1.2477362, -3.6568649, 1.0649729, -0.25133649, 1.2624812,
  -1.9302131, -1.279747, -0.21893111, 1.4833952, -0.090852633,
  -0.16318819, -0.68096012, -0.48949218, 0.42534611, 0.0041754283,
  -1.0031172, -1.0175354, -0.034932561, 0.040663727, -0.21542455,
  -0.71540582, 0.1446031, -0.0050927382, -0.083757482, -0.079920746,
  -0.14616209, 0.098771878, 0.86592066, -0.17667334, 0.3717294,
  -1.0046525, -0.77607375, -0.031892847, 0.36144307, -1.0859476,
  -0.07376761, 0.21709484, 0.22852291, 0.23832914, 0.60824031,
  -0.60729581, -0.20242478, 0.95755571, -0.24899034, -2.1943061,
  0.65977418, 0.35301572, -1.0982257, -1.1662428, 1.0051529,
  0.11219376, 0.18630509, 0.88271731, -0.039204806, 0.13448517,
  -0.50955564, 1.4993546, -0.19596668, -0.68157947, 0.67087686,
  -0.095205575, 0.87563497, 0.20058742, -0.45044103, 0.05926922,
  -2.1775553, -0.14393999, -0.30677959, 0.59633368, -1.728433,
  0.23711129, 0.1419163, 0.21597435, 0.95239741, 0.66674155,
  -0.65482265, -0.606828, -1.3618104, 0.060641773, 0.79000318,
  0.8320989, 0.037603736, -0.66521311, -0.85032046, -0.40044248,
  1.6960886, -0.88563651, -0.75802863, -1.1418715, 1.2319032,
  0.94850522, 0.65801227, -0.4551889, 0.60950458, -1.4351947,
  -1.4138201, 0.755846, 0.29419222, -0.041545913, -0.10877612,
  0.87098348, 0.58090353, -1.1395563, 0.99336445, 0.14324522,
  1.4702646, -2.1309919, 1.2912233, 0.4708567, -1.2124507,
  -1.2210579, 0.6238696, 0.64027977, -0.046647917, -0.20654972,
  -0.094416961, 1.3300246, 1.1929328, 0.33595911, -1.2939613,
  -1.9381661, 0.45799085, -0.11070086, 0.37996355, -0.19355458,
  -0.21802428, 0.27534786, 0.18489705, 0.26279303, 0.20267402,
  0.49262443, 0.042485174, -1.1456523, -0.78469437, 0.21842918,
  0.51877534, -0.66740406, 0.76228452, -0.83850473, -0.75387788,
  0.4418205, -0.77864164, 0.75412959, 0.8835302, 0.55147851,
  0.12112473, -0.32838777, -0.62607306, -0.094664492, 0.19849387,
  -0.20201029, -0.62962228, -0.5573315, 0.49448818, -0.57776958,
  -0.91458476, -0.73802871, 0.025878055, -0.211701, -0.49949583,
  0.15201896, 0.58864141, -0.10360879, -0.51007313, 0.32297781,
  0.13651139, -0.458731, -0.92508751, 0.46579796, 1.5641376,
  0.73258913, 0.68333763, 1.4088237, 0.46223953, 1.5439523,
  -1.1314858, -1.6475246, -0.85136795, -1.6466596, 0.092176273,
  -0.4818351, -1.4920175, -0.15176591, 1.2607787, -1.0780888,
  0.65716326, 3.0844338, 2.9727888, -1.744996, 1.1114436,
  1.490558, -0.55993688, 2.3142314, 1.4049332, -0.077603027,
  -0.43411991, -2.2771916, -1.428895, -0.1393642, -0.24543057,
  -0.35227942, 1.1501853, -1.9351695, -2.014596, 0.73975831,
  -0.5963164, 1.46953, 1.5137573, -0.88945293, -1.4297773,
  1.5606003, 1.3081148, 0.57772696, 0.35622174, 0.0089463107,
  0.83604223, -2.2228181, 0.58998019, -0.89823705, 0.03942053,
  -0.85230184, 0.53351986, -0.18625604, 0.13010664, -0.22910072,
  -1.0062313, -0.12364672, 0.10824025, -0.59370816, -0.36039326,
  -1.3511025, -0.88700604, -1.2994546, -0.98306084, 0.19272332,
  0.78025794, -0.39447248, -0.43805641, -1.0350533, 0.50192523,
  0.067869693, 0.65997881, -1.8881589, 0.2804198, -0.8967762,
  0.80473089, 0.3969411, 1.3369766, -1.4836217, 0.88534319,
  -0.0045735124, -1.1822128, -0.67027748, 0.46277928, 1.2955526,
  -0.814692, -0.37158552, -0.078658953, -1.5561199, -0.16295087,
  -1.2344525, -0.017073784, -0.80997366, 0.0014230821, 0.11072532,
  0.068306841, -0.44853249, -0.84049159, 0.84451151, 0.55293721,
  0.45526642, -0.048580702, 0.75712985, 0.27549723, 2.3511999,
  1.197592, 0.75662524, 0.18387665, -1.778731, -0.52202713,
  0.29562834, -0.14837526, 0.46396708, -0.17674321, 0.041694384,
  0.39472574, -0.18895791, 0.63230926, 0.1849878, -0.14612804,
  0.1009857, -0.46190795, 0.021018788, -0.53311634, -0.27589402,
  1.1058204, 1.5351126, 0.41737169, 0.24797875, 0.32092068,
  -0.32842347, -0.047344081, -0.09559416, 0.19597483, 0.1054111,
  0.23878248, 1.0772561, -0.61469209, -0.37339765, -0.36421531,
  0.36476624, 0.3960492, -0.5222742, 0.96874511, -1.1310608,
  -0.19841567, -0.086299866, -1.0722729, 0.50083315, 0.21768174,
  0.16208002, 0.34554544, -0.16798213, -0.73667639, -0.98407853,
  0.32227257, 0.54725057, -1.6591461, -0.096802913, 0.31463209,
  1.2797478, 2.4899518, -0.63036793, -1.2329788, -1.6733485,
  -2.3536537, 0.75706196, -0.047817104, 0.59575647, -0.18393104,
  -1.3617673, 0.34991, -0.0635259, 0.903624, -0.75030708,
  0.43417224, -0.078097828, 0.64714307, -0.066491254, 0.53997052,
  -0.97539788, -0.53526568, 0.43029433, 0.31102115, 0.46023002,
  0.062426388, 0.442416, -0.292229, 0.70863849, 1.2053789,
  0.00121914, 1.5028912, -0.44922033, -0.33986694, -0.54683024,
  0.39296207, 0.19725372, -0.5959388, 0.35470533, -0.14300215,
  -0.74943382, 0.28695118, -0.4192884, 0.5816462, -0.31984857,
  -0.026472006, 1.2719852, 0.861259, -0.071473904, 0.70532542,
  0.68111128, -0.24120677, -0.038831767, 0.1682743, -0.66358489,
  -0.46123168, 0.56993377, -0.97971934, 1.0098492, -0.56783879,
  0.022112908, -0.33457685, 0.18090804, 0.71641684, -0.78558785,
  -0.42408949, 0.11671107, -0.4599556, 0.33062166, -0.12205148,
  -0.069601052, -0.10909164, 0.9315666, 0.54258174, 0.48150498,
  0.16345707, -0.72637647, 0.841368, 0.1655639, -0.66264206,
  -1.224363, 0.6126892, -0.25149959, 0.19856611, 1.5094945,
  -0.37156036, -2.1525829, -1.549974, 1.1396629, -1.5314404,
  0.067728184, -0.67928338, 0.80182892, 0.84360909, 0.76356459,
  -0.22913717, 1.1301991, -0.60570139, -0.59896362, -0.82906336,
  -0.3685, -1.1840596, -0.041707139, -0.2101838, 0.28484046,
  0.58207464, 0.49745965, -0.10004502, -0.82987607, 0.010622727,
  0.16925053, 0.95510405, 0.57753825, -0.67644072, -0.48484242,
  -0.31045404, 1.517409, -0.041467212, -1.0868669, -0.350391,
  -0.15122156, -0.95907927, -0.35106683, -1.0805206, 1.6922687,
  -0.59616882, -0.18340221, -0.064941809, 0.69890946, -1.4080527,
  -0.14814603, 1.2787215, -0.52610689, 0.32614058, 0.78641152,
  -0.39590421, 1.2606603, -1.2059846, 0.02900381, 0.128003,
  1.5778359, -1.7830393, -0.11111826, -0.13430238, 0.3798551,
  0.9889394, 0.41716021, 0.50188774, -0.26464078, -0.461035,
  0.27165672, 0.21595706, -0.15869638, 0.64579773, -0.3387292,
  0.039239436, 0.97318715, 0.86762381, -0.73789704, 0.49660236,
  -0.18367733, 0.32721061, -0.45359424, 1.3466797, -0.74810946,
  -0.095102079, 0.30635607, -0.022548089, 0.89265585, 0.63921291,
  -0.090283468, -1.0748796, -0.089871377, 0.026735788, 0.32510436,
  1.7661619, -0.51913404, 0.74179286, -0.60722989, -0.1071381,
  -0.26001772, -0.49383414, -1.0562252, -1.5341718, 0.80412078,
  0.869062, 0.82745558, -0.093808554, -0.4343029, -0.55650538,
  1.587531, 0.86436915, -0.035072394, -0.41212097, -0.41228724,
  -0.038575515, 0.0484766, 0.25616646, -0.16949117, -0.039516263,
  0.54922223, -0.45303264, 0.21844406, -0.48346582, -0.41163689,
  -0.30646056, -0.66929132, 1.778787, -0.41240746, 0.041772865,
  -0.70687336, 0.47772485, -0.10681315, 0.4553546, 0.96794963,
  0.24329248, -1.4055754, -0.35196617, -1.6100179, -0.671492,
  -0.90803218, -1.2051464, 0.37107357, -0.53121597, -2.9901912,
  -2.5790443, 0.65436912, 1.2622538, 0.13638535, -1.2460726,
  -1.6995764, -2.9948492, 0.8150838, 0.07828366, 1.2116357,
  1.2839211, 0.92780423, 1.6097386, -2.8734372, 0.80974263,
  -1.6220709, 0.24144271, -1.5044184, 0.21737604, -1.0459646,
  0.099716052, 0.91722578, -1.2971245, 0.24883541, 0.28102002,
  0.3928034, 0.33810925, -0.61573887, -0.17864229, 1.7631227,
  2.4963431, -1.9327741, -0.69418633, -1.1827928, 0.13896601,
  -0.042229515, -0.95529324, -0.35014737, 0.06355872, 0.54702842,
  -1.9722736, 1.115545, 1.101267, 0.89820379, -0.33400986,
  0.24992964, -0.31822863, 0.77446955, 2.131701, -1.5326602,
  -2.3717363, -0.59967613, 2.3489945, 0.48065969, -0.99922943,
  -0.60614336, -0.0223375, -0.10668553, -1.3828069, -0.2456055,
  -0.96071082, 1.2627008, -0.38106537, 0.29199553, -0.20933022,
  -0.25335228, 0.68627411, -0.2980243, -0.50715816, -0.15764056,
  0.3210991, 0.52636904, 0.59964669, 0.59390634, -0.55805618,
  -1.4810717, 0.6909644, 0.86989337, 0.18443064, 0.23801893,
  0.54028141, 0.12158189, 0.88142943, 0.09875679, 0.84696585,
  -0.41517153, -0.065976515, -0.37481427, 0.736007, 0.16586417,
  -0.64607894, -0.86332977, -0.35757342, -0.39677927, 0.020526964,
  1.3549774, 0.021509634, 1.4796304, -0.83447248, 0.48768792,
  1.2982624, -0.25195229, 1.2422366, 1.3042966, 0.55498677,
  0.23884356, -0.41635567, -1.2346588, 0.60061526, 0.48172286,
  0.47949412, 0.48613906, -0.56844193, -0.83656532, -1.1242155,
  0.0025591846, -1.217766, 0.3811391, -0.82100743, 0.37180126,
  -1.1284735, -1.1599292, -1.0019732, 0.034052052, 0.676671,
  -2.6315866, 0.59444183, 0.015417999, 0.24261248, 0.066342078,
  0.6165424, -0.85344827, -0.080349475, 0.62835717, -0.17729762,
  0.45662507, -0.00896307, -0.3811073, -0.29615229, 0.55593753,
  0.23461615, -0.39325589, 2.6409402, 0.43923488, -0.64963204,
  -0.47113824, 0.50423169, 2.5142202, -0.41431853, -0.42280966,
  -0.3256301, -0.10968371, -0.86614221, -1.0306873, -1.1130571,
  0.81297457, -0.26567006, -0.56582224, 0.74767995, -0.50788289,
  -1.3375188, 0.0075225434, -0.7252509, 0.24226031, 0.95930672,
  0.38694483, 1.1841499, -0.71865129, -1.836444, 0.70807582,
  1.0661007, 0.043879431, -0.93395346, 0.71446085, 0.56797683,
  0.33767393, -0.75979292, -0.030404761, -0.30026355, -0.42173314,
  0.099321589, 0.86935771, 0.13467267, -0.439151, -0.41056111,
  -0.15329342, -0.43107054, 0.35599753, -0.88622212, -0.22372657,
  1.790422, 1.3264734, -0.51137686, -0.84117365, -0.67523527,
  -2.3486814, -3.2309182, 0.47574884, 1.4827511, 0.083081067,
  -2.0255935, 2.0421851, -2.0488887, -1.6735418, 1.4498668,
  1.6403711, -0.57204252, -0.17407896, -0.79331505, 0.50353962,
  0.3118799, 0.71853322, -0.19193223, -0.41773185, 1.1054417,
  -0.36492205, -0.38849303, -0.77007151, 1.027776, 0.38711721,
  0.37886906, -0.062934496, 0.75289708, 1.0037799, -0.79109031,
  -0.8488844, -0.21051794, 0.54487365, -1.2554612, -1.2900339,
  -0.36527705, 0.057115685, 0.58953142, -0.48193336, 0.076710261,
  1.0835729, -0.33681458, 0.56770384, 0.61229473, 0.77996868,
  0.67804205, -0.92009634, -0.95135605, 1.132494, 0.34840915,
  0.99434704, 0.81521606, -1.2992934, -2.1282537, 0.93534023,
  1.6996675, 4.1011624, -1.6542835, -0.86362582, 0.29447687,
  -0.18959257, -1.0126965, -0.44203296, -0.27184135, -1.0747675,
  -0.099107131, 0.014026387, 0.39670253, 0.60872549, -0.76733971,
  -0.15022416, 0.16660742, -0.49298561, -0.13888364, -0.054494455,
  0.37872329, -0.33191249, 0.77850318, -0.060610496, 0.1141383,
  0.9760381, 0.15358558, 0.3600423, -0.17020135, -0.65258735,
  -0.19129905, 0.675423, 0.63811034, -0.690423, -0.17630991,
  0.40929312, -1.8783765, 0.62194592, -2.6949131, -1.8140862,
  1.9053695, -0.80395925, -0.4475894, 1.666309, 1.1592945,
  -0.86806053, 1.2310729, -2.2627823, 1.4447682, -0.28998435,
  0.15920293, 1.046519, 0.61301887, -1.0415678, 0.15533674,
  1.0625573, -0.41885605, -0.27199984, -0.48965707, -1.0878251,
  0.99712986, 0.26069245, -1.1276867, -1.8701668, -0.3508696,
  -0.49970278, -0.051830735, -1.0238906, 0.84834945, -0.70475745,
  1.0053138, 1.1486187, 0.7768442, -0.49124414, -2.1175518,
  0.80170459, 1.3506601, -1.1384358, -0.32680088, 0.16061175,
  0.27014428, 1.214757, 0.61831164, -0.26698869, -0.51659626,
  -0.074091271, 0.30219, 0.23066258, -0.11021168, 0.308843,
  0.61420244, 0.33710492, -0.14288664, 0.065284632, 0.36196896,
  -0.40058491, 0.022469537, -1.0041635, -0.87131453, 0.11142829,
  -0.090208732, 0.614403, -1.2407218, -2.1013556, -0.21389331,
  -0.83452791, -2.4899104, 2.0451996, 0.52786541, -0.5901764,
  0.62364435, -0.70607579, 0.84108829, 1.0081309, 1.4551059,
  0.97477084, 0.16316153, 0.094014116, -0.37304822, 0.3210623,
  0.33279556, 0.31179586, -1.3666798, -0.32812813, 0.16743322,
  -0.67850542, 0.56989896, -0.093928315, -0.73101032, 0.77309573,
  -0.190712, 0.088838659, 0.25742385, -1.6317548, -1.2502824,
  -0.50066823, -0.71955365, 0.9990558, -0.010399139, -1.1221806,
  0.046895072, 0.19460818, 0.36110985, -0.93267125, 0.4612509,
  0.562171, -1.9888543, -0.0037924782, 0.77008295, 0.100967,
  0.8200894, 0.055378597, 0.32495102, 0.72165668, -0.40303588,
  0.21474588, -0.03270711, 1.288285, 0.68146211, -0.29512924,
  -1.0134248, -0.3177999, -0.36010045, -0.86214435, 0.3647449,
  2.2204766, -1.2845674, -0.39314669, 2.0538535, -0.20826386,
  -0.30023584, 0.48295426, 1.1448908, 0.89062488, -0.6218738,
  -1.6290611, 1.9182117, 0.60367405, 1.4110037, 0.1314055,
  -0.43628296, 0.70376128, 1.3962886, 1.0618635, 2.4622972,
  1.988272, -1.9272199, -0.34784907, 0.45438367, 3.0190246,
  -0.83390015, -1.5208209, 0.79975873, 0.53819609, 0.47502127,
  -1.7845964, 0.28662825, -1.2732309, -0.60656029, -0.38315719,
  0.97681683, -1.2220688, -1.1774187, 0.35034338, 1.1489915,
  1.1605359, -0.54873234, 0.54093713, 0.41801193, 0.34892479,
  0.58543855, -0.1621605, -2.5078611, 1.5253654, -1.5324112,
  2.1870947, 0.474843, 1.583003, -0.2446727, -0.083346568,
  -1.3736615, 2.6411994, -0.43405452, 0.762018, 0.227909,
  0.3716751, -0.851397, -0.61868447, 0.22363041, -0.31951913,
  -1.7241541, -2.0743823, -1.617816, -0.14327376, 0.89037532,
  -1.5910698, -0.31466424, 0.63754511, -1.3247911, 2.207454,
  0.25401381, -0.40044004, -0.22443429, -0.36727351, -0.59705216,
  -1.0369315, 0.27370936, 1.6024634, -0.822811, -0.9643693,
  0.13194586, -0.92827296, -0.4648138, 0.38569605, 0.39589474,
  0.73295903, -1.3914635, -0.71137232, 0.34484544, 2.0231268,
  -0.3185074, -1.3819432, -1.0975074, -0.66844457, 3.2003164,
  -1.2831733, -0.86222059, -0.58811629, -0.35787553, 1.7479531,
  -0.86538625, 1.404979, -1.3646867, 0.82267773, 0.00724431,
  2.1399975, 0.16090624, 0.50498587, -0.74446315, 1.2040526,
  0.77444649, -0.34964606, 0.7402364, -0.11104912, -0.765515,
  -0.23831904, 1.2314996, -1.7378798, 0.39447126, -1.2718275,
  0.61265689, -0.16075012, 1.6233366, 0.28770944, -0.53276604,
  -2.2528262, -0.10798069, -0.77591872, -0.55926, -0.98160928,
  -0.21505982, -0.056080833, -0.52320617, 0.98066127, 1.1271483,
  -0.40184432, -0.19841062, 0.71100295, 0.45503831, -0.83825082,
  -0.89622515, 0.20081842, -0.17433093, 1.1135846, 1.3749229,
  -0.21175452, 0.087759264, -0.31172261, -0.063488655, -1.0983878,
  0.37832287, -0.43126413, -0.063632004, 0.23740223, -1.2516524,
  -0.0645032, 0.31121859, -0.76460314, 1.0165446, -0.12632635,
  0.7464118, 0.18792729, 0.15953216, -0.32627535, 0.2924639,
  0.74831593, -0.89622384, -0.44338581, -0.086565256, 0.843624,
  1.5776076, -0.15868613, 1.2434953, 0.11863121, -0.72733939,
  0.30864403, 1.3705014, 0.52582383, 0.91466373, -1.5109141,
  -1.3942503, 0.60569364, 0.096647128, 0.2205078, 0.13402915,
  -0.75993043, 0.38742009, -0.42908189, 0.80088, 1.0279853,
  -0.4347899, 1.7004969, 0.1726587, -0.56513554, -0.41622239,
  0.10210837, -0.85120374, -1.7692399, 0.83526576, -0.25760865,
  0.10239997, -1.1379601, 0.45972908, 0.32900408, -0.19400091,
  0.87040704, 0.91425824, -0.42838177, 0.2937215, 0.26246205,
  0.42667392, -0.75684333, -0.8935656, -0.93687481, 0.28377846,
  -0.22973143, -0.80167997, 0.19656481, 0.25602683, 0.42950985,
  -0.67642468, -1.067944, 0.35150278, -1.1504816, -2.0764196,
  1.0253218, -0.339194, -0.22030523, -0.24075325, 1.3197525,
  -0.49346414, 1.9649808, 0.60099953, -0.051192094, -2.2343142,
  -0.17720568, -0.78148353, 0.17637961, 1.3181286, 0.15579669,
  -1.1270339, -1.2700658, -0.11020194, -0.78132862, 0.045824371,
  -0.68457556, -0.85589939, 0.67133451, -0.65454483, 2.085007,
  -0.08413367, -1.2915953, -0.30628678, -0.67070925, -0.5686717,
  0.21150361, -0.18717651, -0.14426675, 0.96723986, -0.11297747,
  -1.6088132, -0.13308443, -0.52993619, 0.54982859, -0.36851114,
  -0.060187194, -1.1725866, 0.64745158, -0.50191414, -0.68216527,
  -1.0890553, -0.66462487, 0.68014711, 0.55470777, 1.2379169,
  1.3753744, -1.0048578, -0.40744784, 0.33593887, 1.1223103,
  0.34385687, 1.4612368, 2.0718055, -1.3781434, -0.038831294,
  -0.44674632, -0.41042715, -1.5107695, -0.25278628, 0.70236218,
  0.66102511, 1.2065772, -0.8565377, 1.1185172, 0.51194304,
  -0.87927395, 1.3261529, -0.902137, 0.52534336, -0.24805997,
  -0.60686737, 0.32842588, 0.18494496, 0.53471559, -0.78864211,
  -0.96407139, 0.076537438, 0.40923998, -0.65534449, 1.1826035,
  -0.51016039, 0.41400656, 0.021474918, -0.45816579, 0.85041738,
  0.76579344, 0.31942156, 0.32576483, -1.1341404, -0.33626172,
  0.080060504, 0.72018379, 0.81415546, -0.07314232, -1.2403125,
  -1.7495518, 0.81205648, 1.3424029, 0.078159526, -0.33026144,
  0.58276016, 0.015061296, -0.85248566, -0.46978697, 1.1453967,
  0.27431041, -0.56617087, 0.49583623, 0.4556464, -0.93133569,
  -0.098367661, -0.39615455, 0.19325414, -0.90808153, 0.47721407,
  -0.11465556, 0.97420132, 0.068131343, 0.77158672, 0.13890357,
  0.56133717, -0.31862462, -1.2972374, -0.98616558, 0.29623958,
  -0.45353222, 0.97788811, -0.83426839, -0.13966991, 0.57364231,
  0.54697478, -0.090473592, 0.49128962, -0.43388829, -1.6439878,
  -0.72006768, 0.52570671, 0.22171493, 1.2288804, -0.59827012,
  0.6390543, -0.59309059, 0.21574336, -0.85769081, 1.4013593,
  -1.0177493, -0.16870685, 1.2900031, -0.0029602412, 0.5411005,
  0.86014831, 0.34286767, -0.63426435, -0.51877338, 0.20123185,
  1.0175014, -0.48063257, 0.4861663, -0.36750007, -0.42536527,
  -0.020616295, 0.84652752, 0.54177117, 0.221538, 0.8599335,
  0.16678135, 0.80460316, 0.048816983, -1.1953462, -1.0565757,
  -0.22514614, 0.67040288, -0.18381326, 0.059083611, -0.038986936,
  0.78704822, -0.86922497, 0.056724388, 1.2692879, 0.40951332,
  0.49924588, 4.3066192, 0.90547431, -0.776033, -0.35910842,
  1.649581, -0.21201771, 0.68460506, 0.032087464, -0.5683955,
  2.0420098, 1.717181, -1.8740265, 1.8168224, -0.54001379,
  2.2275374, -0.378262, 0.74166447, 0.2069153, 0.56145006,
  -0.71454638, -0.60294741, -0.58145279, -0.11826003, -0.3097381,
  1.6369313, -0.4725979, 2.078896, -1.028702, -1.0248772,
  -0.10292555, 2.3454783, -0.36478215, -1.0930979, -2.0282602,
  -0.40295726, 3.0488784, 0.66167712, -0.069680065, 0.55921739,
  0.22035789, 0.99080139, -0.85955656, 1.3887352, 1.3318571,
  -2.3752675, 0.38808113, -1.8146986, -0.80605793, 0.93038058,
  0.13616008, 0.80775231, 1.3176051, 1.5016968, -0.33751047,
  0.36318147, -0.54911268, 0.21887963, -0.34925914, 0.45526522,
  0.94724107, 1.5628216, 1.0343999, 1.2713428, 0.51100653,
  -0.054336961, 0.32752138, -0.020866306, -0.47224331, -0.637391,
  -0.38271341, 0.21690118, 0.75463182, 0.14253955, 0.12429253,
  0.54042655, 0.60062456, -0.24542151, 0.62540144, 0.5620265,
  0.17377129, 1.3904884, 0.38436908, -0.58649039, -0.36897925,
  1.031361, -0.38230971, -0.15333113, -1.1179334, -1.1596458,
  -0.48121136, 0.84545171, -1.074194, 0.13809708, 0.85527438,
  -0.52480525, -0.17932846, 0.34122935, 0.52108258, 0.2279847,
  -0.50705403, 0.66364586, 1.61377, -0.15038098, -1.8006963,
  0.97172856, -0.21826912, -1.501681, -1.5598124, -0.24089746,
  0.48645151, -0.43482968, -0.063616164, -0.57334727, 0.53432208,
  0.33431646, -0.69578832, -0.25274274, 0.87807125, 0.040329035,
  -0.19864887, 2.0051489, 0.44476417, -0.7303946, -0.80179793,
  1.0486534, -0.22273411, -0.59296161, 0.8290534, -0.0011327445,
  -0.72983736, -0.81185722, -0.14077479, -0.016942289, 0.47222164,
  -0.49303734, -0.33294335, -0.28812385, -0.28604805, 0.939746,
  -0.41837826, -0.61097312, -0.5586794, 2.0377586, 1.8254704,
  1.5710852, -0.041628368, -0.74384362, 0.41513327, 0.12338158,
  0.541246, 0.51716971, -1.076195, 0.24876136, 0.047235224,
  -0.60240865, 0.89438516, -0.066722482, 1.063537, -0.11825017,
  -0.267894, -0.013488806, -0.47695729, -1.2753429, 0.63300914,
  0.45733759, 0.68631697, -0.052914031, 0.77072895, -0.22292514,
  0.2274816, -1.8448608, 1.3534842, -0.14839458, 0.15092932,
  -1.135076, -0.31965545, 0.72972596, 0.0738056, -0.55309212,
  -0.36723411, -1.1910732, -0.82861251, 0.39775407, -0.10920193,
  -0.50132447, -0.53078705, -1.1416035, -1.426495, 0.020484829,
  0.53820896, 0.6338191, -0.46818268, 0.086108826, -1.1670365,
  -0.62243754, -0.016799698, -0.828585, -0.54408926, 0.8903237,
  -1.2936944, 0.38490418, -0.29092449, -0.61025012, 0.56187069,
  0.48128811, -0.59258562, 1.0794176, 0.70716488, -0.67879552,
  0.74308109, 0.35782272, -1.2212701, -0.40776929, -0.18292123,
  1.1139508, 1.9700364, -1.3585232, -2.4366827, 0.50170523,
  0.28031051, -1.1609925, -0.98393363, 1.7265162, 0.256292,
  1.4669739, -0.46089768, 0.34343588, 1.5483347, 0.4184671,
  1.1252396, -1.6055557, 0.20313528, -0.16100621, 0.90230978,
  1.1496764, -0.99355781, 0.33854008, -1.5004448, 0.16021806,
  1.738386, -0.3197231, 1.4761242, -1.0645446, -0.49166185,
  -0.17139503, 0.614319, -0.50232178, -0.37827525, -0.72044516,
  -0.4226371, 0.67895818, -1.0151783, 2.0207913, -0.29191536,
  1.2665535, 0.82092696, -0.37157527, -0.49751458, 0.32187992,
  0.8116101, 1.9764017, -0.29462877, -0.57573372, 0.28423196,
  0.11061866, -1.358339, 0.025080087, -1.0679651, 0.72681057,
  0.75725907, 0.96682119, 0.51422864, 2.0231454, -0.34930944,
  -0.51952666, -0.20384036, 0.54646796, 1.273953, -1.7274957,
  0.56177866, 3.2796135, 0.47870475, -1.6557709, -2.8272872,
  0.54387313, -0.42993441, 0.34735009, 1.3719779, -0.50486088,
  -0.37760526, -1.3898032, -0.10592467, 0.42816636, -0.0798648,
  0.40450683, 1.1186644, -1.7480094, -1.0512398, -1.0845354,
  0.41724816, -0.68098354, -0.36061341, 0.47489539, 1.0330969,
  0.91438413, 1.2825443, -1.4375563, -0.48439348, 1.8937656,
  0.23151664, -2.0610335, 1.2330575, -0.86622113, 0.40166619,
  0.92123955, -0.027749218, 1.2610435, -0.98951769, 2.1329205,
  -0.96121162, 0.80667192, -1.2083147, -1.2478597, -0.51431167,
  0.25125119, -0.14047168, -0.95502371, -0.920923, 0.4898212,
  -0.32677174, 1.1045265, -0.035246011, -0.63758528, 1.0416883,
  0.9545477, -0.048915785, 0.47712746, -0.49004868, -0.27535892,
  0.55769408, -0.54503703, -0.098778136, -0.405111, -1.0407804,
  0.60204619, 0.12449352, -0.82580614, -0.092556842, -0.089470543,
  0.73346168, 0.34500065, 0.97628886, -0.32755038, -0.42656738,
  -2.0870135, -0.53227663, -2.7591171, -1.8386548, 0.7669763,
  2.5137441, -0.67996341, -1.2607409, 1.3382448, -0.019697372,
  0.17859636, -0.037423808, 1.6616019, 0.92283922, -1.1562536,
  0.31165302, -0.4883264, 0.73218495, -0.56927562, -0.31717658,
  0.25486845, -0.95139897, -0.64958394, -1.4015243, -0.25369805,
  -0.42232397, 0.068704411, 0.21658368, 0.40706575, -0.20626868,
  0.43806729, 0.54774559, 0.60137421, 0.44550881, -0.85316873,
  0.13954189, -0.44430673, 0.46861914, -1.189167, 0.4674499,
  0.61261243, 0.76712644, 0.034689363, -0.14123316, -0.097145073,
  -0.14952724, 0.4070684, -0.28885558, 0.93804485, -0.75721562,
  -0.31255117, -0.39358422, -0.96546263, -0.9254933, -0.44378981,
  -0.72322989, -0.923996, -0.20328428, -0.19536172, 1.3967255,
  1.1830057, 1.1697452, 0.67630011, -1.7594036, -0.62770832,
  0.1143483, 2.0752969, 2.0874131, -0.16581814, -0.77741456,
  2.33096, 0.11394151, -2.0852737, -0.011976214, -2.2973056,
  -1.0241421, -1.6577098, -0.061112992, 0.8051284, -2.6066132,
  0.72382849, 0.062690847, 2.1407633, -0.25550434, -1.3038183,
  -0.11338895, -0.60118335, -0.37743843, 0.79681057, -0.45100623,
  0.62923175, 0.35193378, 0.062832206, -0.0035299375, 0.087705418,
  0.49795574, -0.38567448, 0.22694089, 0.49061024, -0.24538989,
  -0.82539284, -0.071214795, 0.021705354, 0.1924199, 0.09971007,
  -1.1139203, 0.068432055, -0.37832731, -1.0193603, 0.77734488,
  0.06980475, 0.73600817, -0.18328893, 0.848916, -0.7376737,
  -0.87063336, -0.081470512, -0.46274555, 0.1496338, -0.28483266,
  0.44027486, -0.57915127, 1.1634057, 0.15190314, -0.16525468,
  -1.7762338, 0.63011748, 0.46671864, -2.4080336, -0.74971658,
  -1.0234944, -0.47031742, 0.33079812, -0.079887345, 0.23967099,
  0.64033109, 0.12425087, -0.97594857, 0.58934379, 0.43375254,
  1.8453412, -0.6577825, 1.5578419, -0.76637292, -0.98058558,
  0.19759396, -0.281239, 0.53056455, 0.23730747, -0.95043725,
  0.67075783, 1.1824554, 0.62199688, 0.78719938, -1.0319437,
  -1.1738203, 0.7814883, 0.9858281, 0.54060417, 0.058808211,
  0.39810351, -0.54578364, -0.29431236, 0.96852833, 0.7983675,
  -0.9164325, 0.67943317, 0.47045568, 0.87920505, -1.9126972,
  -0.552689, 0.50720155, 0.7679565, -0.69514215, 0.69608212,
  0.12504628, -0.546399, 0.58604455, 1.5076416, -0.59003973,
  -0.55175287, 0.024732642, -0.32523322, -1.6743156, -0.089241855,
  -0.16276368, -0.16811231, 1.2674084, -2.9426069, 0.45622134,
  -0.47752917, -0.4628683, 0.37850755, 0.12705624, -0.58171064,
  0.008709657, 0.88922238, 0.5008775, -0.27731895, -0.32518515,
  0.39171934, -0.0017334628, 0.68081969, -1.1919034, -0.42535019,
  0.32170641, 0.017352611, 0.048080139, -0.27807382, -0.074781179,
  -0.11894063, 0.20205957, -0.0033734706, -0.35795733, -0.21361606,
  -0.28424028, -0.98410743, -1.2147242, 0.70265007, -0.0066243638,
  -1.0711567, 1.1280614, -1.2963392, 0.14755233, -1.6445334,
  1.2300142, -0.44460776, 1.6512395, -0.97188413, 0.22460158,
  0.3293865, 0.12557708, -0.88484579, 0.11536042, -0.774028,
  -0.87581164, -0.18956201, 1.7806696, 0.40544283, 1.0585581,
  -0.29789039, 0.1409867, 0.33665609, -1.8098977, -0.35035387,
  1.1357032, -0.71764034, 1.5279511, 1.0970317, -0.67290151,
  -1.2722847, -0.59414953, 0.85462093, 0.0560367, 0.89637619,
  -0.39306834, -0.14594696, -1.1057091, -0.46884349, -0.88675791,
  -0.79040945, 0.38809207, 0.10789596, -0.56399244, 0.70653945,
  -0.3476783, -0.4047243, 0.97689086, 1.5476906, 0.21382485,
  -1.4433776, 0.19833179, -0.87811172, -0.16218604, 0.23119506,
  0.81524605, -0.6388045, 0.88296676, -0.549286, -2.9652748,
  0.67771089, 0.41189703, -0.15934601, -1.1902181, 0.12941146,
  0.6584627, -0.98853552, -0.20238867, -0.49728748, -0.42165396,
  0.58036113, -1.157007, -0.79390174, -0.66427952, -1.0367806,
  -0.28074598, 0.063209765, 0.82026291, 0.65813828, 0.89804029,
  -0.35768098, 0.99441165, -2.0951688, -0.64710224, -1.7558299,
  1.2382109, -1.37759, -1.1615129, 0.63160419, 0.24708945,
  -0.5820331, -0.2584666, 0.82446593, 1.1161796, -0.32827064,
  -0.36256906, 0.9179045, 0.30183962, 0.42929637, 1.1467304,
  1.2925823, -0.37478602, -0.015048357, 1.6299069, -0.16622432,
  -1.6367718, 0.14540952, 0.010966498, -1.5223958, -1.9079801,
  -0.12466076, 1.0390652, -1.1201165, -0.11874031, -0.82889676,
  -0.021097768, 0.42131728, -0.072185993, -0.49977306, 0.13350134,
  -0.57254779, 0.32874495, 0.70130813, -0.19717489, 0.051091861,
  0.0090042958, 0.28997776, -0.20297788, 1.2622077, -0.067039289,
  -0.81462204, 1.1135275, -0.11771486, 0.11240354, -1.0945244,
  -0.6229943, -0.53224421, 1.5626308, -0.026980069, -0.064135015,
  0.20321254, -0.56235754, 0.18837324, 1.3011034, 0.76859438,
  0.011274907, 0.035072032, -0.03845999, 0.28474784, 0.69522387,
  0.045757867, -0.03171793, -0.26404276, -0.53059125, 0.4724876,
  0.78656292, -0.9151026, 0.61364013, -0.017882334, 0.49999467,
  -0.030559607, 0.83603853, -0.01854326, -0.64542621, 0.18852313,
  0.75148427, 1.9378175, -0.13633488, -1.0728865, 0.32696706,
  0.24802744, 1.0662016, -0.30185369, 0.11386257, -0.068167023,
  -0.45406216, 0.34813011, -1.1521353, 0.8871479, -0.83450669,
  -0.07927639, -0.21591423, 1.6208979, 0.45158318, 1.0940756,
  0.1593174, 0.46833736, -2.0319505, -0.39316317, -0.07445287,
  1.7348139, -1.1408209, 0.36934012, -0.62398577, -0.93168193,
  -0.92375392, -0.54583967, -0.019909261, 0.036796518, 0.53722739,
  0.56323361, -0.2309777, -0.62779039, -0.93771815, -0.38337126,
  0.67865545, 0.23578653, 0.85515153, 0.83634752, 1.337634,
  -0.18509766, -0.42839596, 0.78712904, 1.7543774, 0.74960059,
  -0.6541869, -0.364907, 1.1734102, 1.3067387, -0.4912464,
  -1.4773455, -1.1309685, 0.59270453, -0.31823513, -0.029726522,
  0.33911729, -0.856266, -0.097289614, 1.0211123, 0.22581065,
  0.10608503, -0.9174993, -0.04220771, 0.28792188, -1.0408876,
  -0.81877869, -0.79730666, -0.11542702, -0.14646591, 0.71361881,
  -0.41591406, 0.56691879, 0.83916545, -1.2632525, 0.77444237,
  2.7926688, 0.95465088, -1.8175439, -0.526291, -0.17313802,
  -1.3548096, 2.1349411, -1.4860938, -0.25057858, 0.84233654,
  -0.77827328, 0.4188183, 0.09488564, 1.1150154, -0.65820009,
  -0.67918932, 0.10609859, -2.2898815, 0.34159616, 1.2084701,
  1.7403241, -0.46248576, -0.51996082, -0.86903036, -0.91099507,
  -0.03032195, -0.31961915, 2.0454993, 0.074932724, 0.28617585,
  1.2110354, -0.53091407, 0.36098796, 0.22414596, -0.42887026,
  -0.8816238, -0.82355422, 0.24297248, 0.13613679, -0.54365981,
  0.1858685, -0.26749298, -0.60195428, -0.60276312, -0.60610563,
  0.78962106, 0.4051123, 1.8567035, -0.73106241, 1.1081872,
  1.9620074, -0.88398314, -1.4513017, 0.24708034, 0.13365391,
  -0.58799624, -1.6108046, -0.4670406, -0.39966431, 0.0066911224,
  0.29928839, 0.60562426, 0.64647561, -1.056143, -0.83010089,
  0.37637866, 0.44302753, 0.65436536, -0.024124278, 0.084653556,
  0.5233376, -0.20424488, 1.3728924, -0.67341632, -1.1308162,
  -0.75306851, 0.88811171, -0.38210177, -0.81008631, -0.87046957,
  0.1508078, 0.36217123, 0.012944311, 0.40910858, 1.0565084,
  -0.31902182, 0.86594367, -0.34272161, -0.090806864, -0.87785256,
  0.98859328, 0.75135714, -1.6665363, 0.75971812, 0.34359321,
  0.65582907, -0.29573488, -0.30687669, 0.80965662, -0.26773605,
  -0.39539233, -0.48401403, -0.020952892, -0.57273042, -0.45308179,
  -0.897915, 0.55289108, 0.14214239, -0.43236339, -0.076554753,
  0.38371786, 0.26267141, -0.026649365, 0.68901682, -0.374801,
  -0.61856663, 0.11764916, 0.27937716, -0.17281334, 0.49728692,
  -0.28296742, 0.36053798, -0.18306185, 0.3940489, -0.17037728,
  1.1868848, -1.1727451, -1.4578686, 0.22057126, -1.7269511,
  -1.4914323, 1.3703735, 2.0758238, 1.3751152, -0.19641759,
  0.96640211, 2.7792904, 0.77059859, -1.0295783, 0.17228919,
  1.3553798, 0.68393582, 0.91771942, 0.21273395, 0.15268354,
  0.82871932, -1.3207829, 0.59133542, -0.25661424, -1.3988029,
  -1.7204211, -0.0096570849, -0.94463158, 1.5305823, -0.69424957,
  -0.60363936, 2.451998, -1.8499633, 0.0011601595, -0.12564382,
  4.2323389, 0.32861832, -1.0756063, 0.82170814, -0.65601587,
  0.25854868, 2.4604633, -1.9706933, -0.15841201, 0.96106392,
  -0.28675228, 1.3473163, -1.7636898, -0.42278388, -2.856339,
  -0.10550608, 1.7329005, -1.3156759, -0.54659253, 2.3217988,
  0.35086131, -1.1798768, -0.18394989, 0.51882148, 1.9232589,
  0.30207333, 2.6812713, -1.938188, -1.1069239, 0.30346927,
  0.037842948, -0.026985886, -1.3455985, -2.2039711, -0.76695395,
  -0.066255249, -0.69308424, -0.81443346, -1.5012722, 2.2538831,
  0.41478124, -0.83524048, 0.14350413, -0.84594232, -0.8967362,
  1.2896122, 0.47338393, -0.42700371, -0.45117834, -0.12606348,
  -0.0039698612, 0.97941172, 0.2047997, -0.011225106, -0.65674657,
  0.15946911, 1.3467064, -0.95906895, -0.80340809, 0.15665472,
  -0.037369736, -0.99243963, 0.3194955, 0.061709788, -0.88144028,
  0.359698, -0.16215694, -0.52214432, -1.131228, -0.30324444,
  -1.2094566, 2.2871022, -0.98243922, -1.3870773, -0.50541979,
  0.43168816, 2.7774971, -1.4639893, -0.27958187, -1.1263711,
  1.33663, 2.2112117, 1.1013095, -0.21076509, 0.46793514,
  -1.8340158, 0.10507363, -0.16054282, -0.75975841, -0.63660544,
  -1.4699723, 1.7315644, 0.24924655, -1.1788154, -0.99536884,
  0.8884148, 0.52105957, -0.77103996, -1.7170789, -1.2708931,
  -0.62185407, 0.87229979, 1.2352995, -0.014727702, -0.8329764,
  -0.7425468, 0.77168888, 1.5959208, 0.75504661, 0.11863123,
  -0.82959038, -0.63614321, -1.5116594, 0.38462096, 0.40340886,
  -0.20642783, -0.71704239, -0.53195304, 0.35995239, 0.36171365,
  0.67670238, -0.36857364, -0.54613042, -0.1651811, 0.74461764,
  -0.14719261, -0.454137, -1.0030497, 0.57456183, 0.36270574,
  0.21028011, 0.390024, 0.057800792, -1.4538431, -0.85288584,
  0.98271489, -0.45507631, 0.48307222, -0.47306022, -0.70848334,
  1.1362686, 0.66639566, -1.1875074, 0.13407378, -0.42454377,
  -0.29882368, 0.13501526, 0.89424986, 0.98251021, 0.799772,
  -0.10229939, -0.8541252, 0.228848, -1.4587361, 0.6965813,
  -1.2438399, 0.047768243, 0.45544112, -0.18525282, -0.99131328,
  0.055296618, -0.5862183, 0.29683268, 0.91895312, 1.1214119,
  -0.24938786, -0.060503677, -0.24556971, -0.59855217, -1.0565653,
  0.77125251, 0.61159688, 1.3934541, -0.062304631, 1.0198761,
  -0.75241119, -0.86268938, -0.6629228, 0.94876349, 1.2936728,
  -2.6262357, 3.4224772, 0.96742147, -0.73443496, -0.51793134,
  0.56618559, -1.4077719, 1.5603536, -0.21002863, 0.85740525,
  -0.55585784, -1.0213259, 0.67981803, -0.28744236, 1.2200059,
  -0.14880002, 0.063661337, 0.49424842, -0.25774679, -0.69219482,
  0.2473917, 0.27435476, -0.741003, 0.30901879, 0.21270277,
  0.48460537, -1.1933535, 1.26758, 1.4661195, 0.072326571,
  -1.0218213, -0.92261094, 0.51977664, 0.34127682, -1.1111953,
  0.056383185, -2.1701634, 1.0032849, -0.89013457, -1.6725224,
  0.83090425, 0.78838319, -0.14126378, -0.2209134, -0.59448224,
  -0.35440478, -0.29352674, 0.24507633, 0.27185151, -0.55493444,
  -0.81118751, -0.839864, -0.14846303, 0.42785147, 0.317394,
  -0.89218366, -1.2211863, 0.2444125, -2.2459729, -0.34999767,
  0.33951166, -0.58725649, -0.526014, 0.094951846, -0.16791496,
  -0.003311428, -0.36802208, -0.17851068, -0.36921445, -0.75167614,
  -0.11326769, -0.24135014, 2.0217636, 0.25977191, 1.0651319,
  -0.28474662, 0.42512926, -0.09372922, -1.1602089, -0.11600214,
  -0.48954535, 0.84080058, 0.2152542, 0.76182348, -1.4432071,
  0.21199262, 0.820535, 0.14159296, 0.57682717, 0.52229,
  0.1447425, 0.31155655, -0.38499609, 0.11399539, 0.3019554,
  -0.56408006, 0.43278685, 0.90073556, 0.18697982, 0.82108337,
  -1.4876022, 0.51128471, -0.67652082, 0.35331291, 1.0946373,
  -1.2387835, 0.068803772, -0.15447852, -1.0301884, -0.0028561675,
  -0.48609242, -0.95552009, 1.0609185, 0.37664315, 0.546541,
  0.83712614, -1.0646037, 0.91930038, -0.50378925, 0.3631025,
  0.10736445, 0.38782939, -0.20448337, 0.49381462, -0.63161063,
  0.18760149, -0.56526345, -0.349328, 0.058886707, -0.37330434,
  -0.54654539, -0.776079, -0.082805581, -0.10053007, -0.43634507,
  -0.88550234, 0.65665835, 0.90905315, -0.18633448, -0.62573087,
  -0.31407502, 2.2024202, -1.0568665, -0.10865086, -0.51299071,
  0.79298347, -1.5599797, 1.6126044, -0.41510588, 0.19258812,
  -0.11093294, -0.21979956, -0.83389485, -0.067032836, -0.434004,
  -0.54913539, 1.6879544, 1.7314576, -1.0609171, -1.2233638,
  -1.1681511, 1.2165824, -1.2864881, -1.4660028, 0.34665802,
  -0.14230628, 2.0879025, -1.9611566, 1.6177295, 0.77150488,
  -1.1089394, -0.74152905, -0.40561959, -0.911418, -1.7084194,
  0.57218558, 1.1794324, -1.8268412, -1.0191306, 0.1938988,
  0.64839292, -1.9930931, 0.35196233, 0.80668569, -0.41042277,
  0.44295233, -1.0931813, -1.413056, -0.90075344, 0.19804887,
  -1.5909128, 0.014087864, -0.36185029, 0.16594131, -0.97107226,
  0.71543163, -1.0418178, -0.039915781, -0.46481246, -0.35287133,
  0.333298, -0.32747534, 0.15456302, -0.24755208, -0.10717589,
  0.34793913, 0.52232534, -2.0176857, 1.0518816, 0.46804368,
  0.1331076, -0.26747081, -0.72931069, -0.79469407, 0.51724541,
  -0.63046527, 0.50673932, 0.044785533, -0.25739038, -0.40196872,
  -0.579564, 0.26046661, -1.9431883, 0.54835409, 0.16912663,
  -0.69620812, -0.24679671, 1.0404322, -0.61319077, 0.32107481,
  -0.18791114, 0.20365666, -0.39408514, 0.060415734, 0.46643507,
  -0.20252763, -0.32266802, -0.63463593, 0.18513538, 0.81224918,
  0.16826515, -0.58863413, -0.69146723, -0.27674806, 0.056393288,
  -0.13042212, -0.064730607, -0.3801626, -0.91298008, 1.3001833,
  -1.5500433, 0.12001131, -0.50383651, -0.51880205, 1.7693131,
  0.25660807, -0.658666, -0.088438, -0.32000774, -2.4438014,
  0.674097, -2.076221, 0.934943, -0.2494372, 0.75984287,
  -0.061355311, 0.37324205, -1.2181122, 0.081111208, -0.72845918,
  -0.48207596, 0.77684432, 1.190948, -1.3095256, -0.036077965,
  -0.26188347, -0.17390561, 0.24555071, -0.00035526557, 0.258376,
  0.52412212, 0.59039205, 0.088377334, -0.3560482, 0.4504866,
  -0.84962219, 0.14438416, 0.61952156, -1.1166147, 1.1040533,
  0.021358564, 0.80102617, 1.1662836, -0.34174, -1.3244779,
  0.42204508, 1.4773968, 0.24998096, -2.2176826, 0.96851462,
  -0.8775562, 0.16385928, 0.036979802, 0.0090564471, 0.41868466,
  -1.3626001, 0.088335581, -0.689093, 1.0052357, 1.5004069,
  0.26072398, -1.2049911, 0.55783993, -0.34899324, -0.2661587,
  0.59276175, 0.23802066, -0.82189941, 0.22550285, -0.722562,
  1.7801611, -0.82288986, 0.82729375, 0.98772764, 0.87051415,
  0.31268805, 0.075654015, 0.086503267, -0.071215093, -1.065981,
  -0.99376577, 0.6608538, 0.12630795, 1.1298541, -0.1651103,
  0.48926845, 0.56673551, -0.24107762, -0.26480556, 0.99465513,
  0.050267603, 0.63798046, 0.4326596, -1.4838009, -0.5504061,
  -0.32794011, 0.01006523, -0.60207832, -0.54254657, -0.14906222,
  0.43748468, -0.49178946, -0.21441106, -0.038444698, 0.26736125,
  0.73336977, -0.22673364, -0.44996235, -0.32103869, 0.98341733,
  0.62650061, 0.25752085, 0.084693842, -1.015949, 0.368341,
  -0.77761161, -0.23130386, -0.24345797, 0.10029275, -0.17563441,
  0.01858717, 0.3790476, -1.1671529, -0.59988457, -0.30734128,
  0.38928545, 0.84856051, -0.58783066, 1.3272097, 0.65818989,
  -2.2489145, -1.7380731, 0.35544088, 0.056851432, 1.478838,
  -0.966444, -3.6820254, -0.60252571, -0.52049071, -0.026351698,
  0.67221111, 0.8684454, -1.0656393, -1.2897228, -2.4017015,
  -0.92583674, 1.9083545, -0.12651356, -0.59289062, -0.73510522,
  0.22301267, -1.0738943, -2.2433307, -0.99051279, 1.2010663,
  -0.760636, 1.7670612, -0.88080311, 0.893168, 0.88035768,
  -0.82277775, -1.7720863, -0.77843863, 0.69169062, 1.2188138,
  0.15527217, -0.061119389, -0.21163014, -0.19406745, 1.0091902,
  0.13327961, -0.3757391, -0.20231719, 0.93041778, -0.46927071,
  -0.63928896, -0.19240935, -0.47744811, 0.91421664, -0.16473322,
  -0.72819078, -0.8752566, 0.45483187, -0.13948359, -0.2266365,
  -0.83212197, 0.70835608, 1.3226718, 0.47455886, 0.61706752,
  -0.15573947, -0.077631354, -0.68970931, 0.6411218, 0.23686725,
  0.21335171, -0.92961091, -0.63006854, -1.0982312, 1.4025241,
  0.051612433, -0.68098646, 0.11584307, 0.24700685, -1.2037966,
  1.1556685, 0.86025566, 0.5315221, 1.5006068, 0.48981068,
  -0.85259223, 0.64488459, 0.064394355, -0.29216442, 0.4066335,
  -0.54148155, 0.15825894, 0.99148339, -0.1873222, -0.069906518,
  1.0373317, 0.2604807, 0.066079125, -0.32476935, 0.25680283,
  1.0899282, 1.0968332, -0.45719653, -0.51828, 0.78558213,
  0.015455897, 0.31013373, 1.0151759, 0.8395251, -0.845513,
  -0.4188019, -0.48281315, 1.5019944, -0.86806387, 0.44549611,
  0.42520511, -0.006357593, -0.75633687, -0.22489616, -0.42060393,
  1.5675204, 1.6060091, 0.074259862, -0.79280865, 0.70495754,
  -0.61723125, -0.30455193, -1.3340526, -0.96411055, 0.0826262,
  -0.18679947, -0.38973191, 0.646998, -1.192728, -1.1419199,
  -0.2727972, 1.2388421, -1.6127777, 0.96398371, -0.72731763,
  -0.077368051, -0.028607968, -0.035120081, 0.63453108, 0.70397389,
  0.014661962, -1.0912548, 0.34955686, -1.4703785, 0.88359386,
  -1.1079336, 0.063578896, -0.46255955, 0.50588989, -0.44733745,
  -0.56979346, 0.29721844, -0.52426326, 0.426984, 0.65098226,
  -0.51956463, 0.12787288, 2.2695112, -0.64002681, -0.85783821,
  -0.37195688, -0.3460806, -0.24946198, 1.6918616, -0.5546779,
  0.98748171, 0.43559879, -2.1775541, -0.30527464, -0.72863358,
  0.77262378, -1.389406, -1.1754956, 0.89157641, -0.816788,
  0.22888441, 1.0790335, 0.050432354, -0.259888, -0.32663536,
  0.99701995, -0.087828368, 0.70717317, -0.19234185, -0.37158298,
  0.65244162, 1.0226597, -0.011873464, 0.66578352, -0.055958685,
  -0.2088839, -0.0933524, 0.42920843, 0.89671576, -0.10256448,
  -0.33829263, 0.10681487, -0.0661168, -0.4983283, 0.1245486,
  -0.39492524, 0.7154687, -0.0052939616, -0.76038963, 0.36935753,
  -0.41340482, 0.17591979, -0.49818656, 0.50780821, 0.4940027,
  -1.7825642, -0.66976422, -0.78118914, 0.46962097, 0.41134644,
  -0.024555048, -0.40090218, 0.52187765, 0.0059974724, 0.20997813,
  0.35989588, 0.59999287, 1.2275206, 1.8566146, 0.008881717,
  -0.83271992, -0.79802459, -0.047328766, -0.11985908, 0.66583687,
  0.030878983, -0.37750465, -1.9160776, -0.11345278, 0.91632676,
  0.72840774, -0.32717454, -0.37419015, -0.35431948, -0.27239364,
  1.3056122, 0.07393714, 0.88642967, -0.20364332, 0.026430763,
  -0.61785018, -0.19799931, 0.041037641, 0.54039985, 0.92077696,
  0.14386429, -0.71561176, 3.31267, -0.25903597, 0.042678539,
  -0.97170454, 0.23782191, 2.0455647, 0.78555655, 0.18591671,
  -0.5470022, 1.1648791, 0.36927912, -0.2619068, 0.31834289,
  -0.52320451, -1.077548, 0.81136018, -1.12584, -0.15046987,
  0.6232909, 0.98873794, 0.1470263, 0.12721765, 0.080680951,
  -0.46926981, -0.27331775, -0.062196326, 0.39289561, -0.88233519,
  0.8240968, -0.11593461, 0.5099802, 0.19746001, 0.48016074,
  -0.13652818, -0.19712876, -0.33629978, 0.095973462, 0.84479451,
  -0.42512181, -0.048382416, -0.11159521, -0.79703784, -0.40218568,
  -1.2812133, 0.80792707, 0.24262039, -0.048150606, 0.82794535,
  0.18417735, 0.39778873, 1.0267924, 0.057557907, 1.2532097,
  0.69502574, -0.34408954, -0.2004879, 0.42013714, -0.0047889911,
  0.87377137, -1.0732996, 0.25660223, 1.3876219, 1.9434978,
  -0.60893673, 1.4622638, -0.42681772, 0.10690018, -0.62608665,
  -0.14937752, 1.2409534, 0.50633353, 1.0096475, 0.63891673,
  1.5782411, 0.67504478, 0.41714007, 1.3175063, -1.3582586,
  -1.2491229, -0.26139534, -0.18151477, 0.25120825, -0.1436241,
  0.0058661937, 0.54954791, -0.85021669, -1.0536382, 0.20983016,
  0.46631658, 0.48616084, 0.91407156, -0.55541545, 0.80259788,
  0.72129476, -0.091992274, -0.76102328, 0.14428577, -0.23634306,
  0.24907103, -1.0368279, -0.3169353, -1.3282574, 0.13590112,
  -0.39211076, -1.2388676, -0.9672451, -0.64911771, -1.1189572,
  -0.08771117, 0.22302942, -0.2637141, 0.46812069, -0.8702597,
  0.497162, -1.1179255, 0.15759349, 0.1716923, -0.054218311,
  -0.5757193, 0.038173255, -0.45659029, -0.28871626, 0.6677351,
  -1.2531662, 0.92723548, -0.11108791, -0.058935609, -0.79775017,
  0.2212092, -0.15057799, 0.032130096, -0.39752424, -0.14183293,
  0.45645279, -0.89979953, 0.073944286, -0.97350276, 0.64898133,
  -0.3983236, 0.0051156315, 0.8417623, 0.7121641, -0.46991688,
  -0.856871, 0.55843228, -0.34970284, -0.034688585, -0.69003254,
  -0.51539171, -0.13378774, -0.65280843, -0.589498, -1.5215441,
  -1.0377814, -0.65128362, 0.28869715, -0.163418, 0.46220553,
  0.46620637, -0.29214785, 2.5854671, -0.95230585, 0.70929366,
  0.968319, 0.37759143, -0.8176102, -0.45871079, 1.8099525,
  0.84474814, -0.0947609, 1.1166248, -0.096810021, 0.53536159,
  -0.32355356, 1.1776963, -0.69817585, 0.048313439, 0.1465081,
  1.0453223, 0.08860448, 0.10676848, -1.1426384, -1.2821255,
  -0.085711323, -0.41894156, 1.6088805, -1.2246788, 0.16296853,
  -0.75108707, 0.39809862, 1.1913002, -0.24949285, -0.051001903,
  0.36706138, -0.57047141, 1.198326, 0.072345249, 0.58970469,
  -0.94571936, 0.51646709, 0.77009141, -1.063375, -0.78352964,
  -1.1430877, 0.74217355, 0.62753427, -0.68141168, -0.99607408,
  1.1144679, 0.21006173, -1.3096559, -0.30681452, 0.44902256,
  0.17055748, -0.33983713, -0.16100155, -0.098219991, -0.69838065,
  -0.0883696, 0.31170473, 0.177824, -0.19535442, -0.11388642,
  0.96410179, -0.079398885, 1.4849598, -1.7367576, -0.77997696,
  -1.0692688, 0.023285808, 0.18407303, 0.51640242, -0.7444061,
  -2.2034535, -1.3666198, -2.8310745, -0.1330191, 0.092819259,
  0.28098372, -1.0821817, -1.2809637, -0.24382664, 1.0496793,
  0.97198039, 1.4789374, 0.73638195, 1.1804359, -0.025540048,
  -0.37861848, 1.0719129, -0.19405404, -0.30201098, -0.61550868,
  0.57588339, 0.42894617, -1.3051271, 0.58656573, 1.8809332,
  -1.3067316, 0.34592918, 0.30918813, 0.38586229, 0.11468859,
  -0.32130432, 1.4345822, 1.6668813, 0.25761041, 0.33267915,
  0.13432676, -0.70109129, 0.61247879, -0.74816245, 1.8063132,
  0.92391419, 0.5417667, -2.3858285, -1.8054856, 1.8802423,
  2.6144207, 0.66729033, 0.16074444, -1.8959885, -1.7538161,
  -1.817677, 1.7405183, 0.41295779, 0.32192102, 1.9511601,
  0.048142266, 0.49533367, 0.74200666, -0.52195686, 3.0128767,
  -0.37925738, 1.2841316, 1.0139365, -0.67792451, -1.1401522,
  -0.34524044, 0.44313338, -1.9077162, -1.1863613, 3.6027408,
  0.54956973, 0.34334251, 0.091289096, -0.29513225, 0.15509436,
  0.19853443, -1.2041993, -1.1076421, 1.3181274, 0.25758514,
  -1.2014506, -0.015294275, -0.20490402, 0.022145983, -0.83246112,
  0.50522053, 0.88615084, -0.56252152, -0.31764534, 0.12101322,
  -0.34442171, -0.11910332, -0.095031261, -0.3063806, 0.48503926,
  0.6355145, 0.24931897, 0.38278896, 0.68743712, 0.15652269,
  -0.23029606, 0.34136081, -0.16013844, 1.0000987, 0.26481369,
  0.028211407, -0.31730828, -0.68432391, 0.083908252, -1.9657772,
  0.28401855, -1.0214627, 1.0106421, -0.97799903, 0.71361971,
  -1.5598782, 0.61279708, 1.3257924, -0.0092473133, 0.28154072,
  0.66243249, -0.50437522, -1.5807397, -0.79710215, 1.5972115,
  0.94374347, -0.888564, 0.051965676, -1.5711843, 0.24933569,
  0.074428938, 0.56464738, 0.2719934, -0.70187026, 0.070938617,
  -0.0089393025, -2.3345907, -1.5640869, -0.090999104, 0.079585664,
  -1.1921464, 0.32274842, -0.72130573, -1.1125307, 0.023789411,
  -2.0021744, 0.7717219, 0.1208667, -0.66409504, -0.34829703,
  -0.8193658, 0.82205033, -1.1361046, -0.030288687, -0.34233117,
  0.66921449, -0.25581184, -0.36600459, -0.29943907, -0.64099151,
  -0.13828653, -0.1387869, -0.8376205, -0.62287796, -0.79658389,
  -0.91091079, -0.15060283, -0.30791759, 0.73941553, -0.0022861985,
  0.051636472, 1.2606264, -0.43818542, -0.14752109, -0.13495514,
  0.20905073, -0.042335369, 0.37183636, -0.46676296, -0.61840457,
  -0.439329, -0.20608714, -0.32496983, -0.0096008377, -1.0880102,
  0.67163175, -0.21327358, -0.68779397, -0.8507219, -1.4053651,
  0.063031234, -0.48633477, -0.7221325, -1.82027, 1.1793706,
  -2.2940977, 0.75407857, -0.99055576, 0.75486493, 0.22277412,
  -0.58728737, 0.40069693, -0.5968219, 0.085708156, 1.2622988,
  -1.6866522, 0.81499463, 0.32182419, 0.036364581, 0.64167196,
  1.2284746, 0.711236, 0.27057526, 0.9449935, -0.71923053,
  -0.37810582, -0.0037038445, -0.32959422, -0.31418297, 0.22748582,
  0.15018643, -0.15740277, 0.3598738, 0.507264, -0.063756473,
  -0.015506906, 0.051738381, 0.40571794, -0.044138584, 0.27654326,
  0.020726504, -0.0865746, -0.06996765, -0.72756511, -0.29139528,
  1.8497032, 0.25333834, -0.88070577, -0.28286466, -1.5518514,
  0.015884198, 1.1133057, -1.2313391, 0.40932959, 2.0265062,
  0.40079573, 0.37117574, -0.27796665, 0.27790326, -0.25953692,
  0.037037604, 0.18319613, 0.64720613, -0.22983773, -1.3093487,
  -0.45238382, 0.96677947, 0.26046357, 0.19395909, -0.48315307,
  0.36892682, -0.46136132, 1.3888949, -0.17799708, 0.58849424,
  0.036101542, 0.017812658, -0.078714572, -0.35199335, -0.10668924,
  -0.98387653, -0.38472849, 0.74779439, 0.53701818, 0.2292383,
  -0.39266291, -0.06529431, 0.46467182, -0.72308594, 0.98670965,
  -0.88107842, 1.7535529, 0.94983584, 0.13843921, -0.12800033,
  0.33593014, 0.075335264, 0.37361228, -1.6402942, -0.92080551,
  2.9716351, 0.62570918, 1.5652012, 1.4763743, 1.3273635,
  -0.0089664795, -1.153553, 0.64247662, 0.80541229, 0.85665154,
  -0.35268518, -0.62767673, 0.39121145, -0.20701346, -0.21790245,
  -0.28331104, 0.990938, -1.0627615, 0.16373184, -0.25946817,
  -0.73997355, -0.418336, 1.3651911, -0.46497259, -0.76894605,
  -1.5413823, -0.44995382, -0.56794012, -0.11311044, -0.43268648,
  0.91589618, 0.15493549, -0.72272575, 0.69126654, -0.34112296,
  -0.15861385, -0.33153579, -0.23828427, -0.49806029, -0.58606982,
  -0.39355576, 0.69024283, -0.66695005, -0.79187804, -0.45382264,
  -0.54622513, 0.38494843, 0.5813067, 0.18465157, 0.4620783,
  -0.19866137, 1.142203, -0.020590464, 0.32076284, -0.56848407,
  -0.74845755, -0.50514781, -0.95858228, -1.4680369, -0.74328619,
  -1.0367193, -0.93616503, -1.1807375, 0.074391313, -0.060046803,
  -2.2588413, -1.4693663, 0.025219072, 0.23527955, 1.2115753,
  1.0947542, -1.103399, 0.28641227, -0.20709817, 0.37560296,
  0.19443102, 0.74746424, 0.64933765, 0.27535689, -0.57016653,
  -0.26372227, 0.057153117, -0.67054647, -0.017330587, 0.5570271,
  1.806888, 1.5410088, -1.0798213, -1.808937, -0.41787204,
  0.71236545, 1.1838199, -0.85108566, -1.3910021, -0.029858552,
  0.17547524, 1.6279802, 0.26351479, 0.87670267, -0.26533529,
  -0.46859166, -0.31625766, 0.82871807, 1.0269679, 0.35737538,
  0.38048556, -1.3377035, -1.1126484, 0.28367373, -0.34289384,
  0.039169051, -1.0454514, -0.788762, -0.98383486, 1.415345,
  0.041088641, -0.6030876, -0.089441337, 0.27280247, -0.22700168,
  -0.089685351, -0.13935193, 0.011521205, -0.24983552, 0.072165795,
  -0.0082407966, -0.86725074, -0.75101417, 0.013400448, -0.40401062,
  -0.11571906, -0.58453232, -0.087931186, 0.5753879, 0.15891005,
  -1.3303256, -0.10203392, 1.6914279, -1.0111052, -2.4843524,
  -1.6828463, -0.62566388, 1.3422239, 1.634192, -0.0066482206,
  -2.7279775, 0.34942773, 1.9656366, 2.1578023, 0.71742481,
  0.012748367, -0.44903076, -0.70471728, 0.64175743, -0.88652223,
  -0.33394217, 0.39539433, 0.54536217, 0.63249916, 0.54224032,
  1.2239368, 1.3076133, -0.67745012, 0.11001007, 0.013838313,
  0.012311423, -0.15646809, 0.71487689, -0.67562616, -1.2007188,
  0.082552806, -0.094965033, 0.22798908, -0.17785135, 0.12539554,
  -0.90003937, 0.58033073, -0.17809528, 0.084576316, 1.2121742,
  0.55213642, -0.15116157, 0.62930238, -0.063116223, -0.27690917,
  0.58840412, -0.60346878, -0.62215096, -0.20175728, -0.70912743,
  0.22234343, 0.31364095, -0.51002538, -0.61307335, -0.91488367,
  0.624032, 0.052480549, 0.39123285, -0.4019784, -0.18628775,
  -0.662771, 0.43899038, 0.39479855, 0.66216248, 0.19670299,
  0.61566037, 1.1502066, 0.72300345, 0.8395943, 0.0012016807,
  -0.9681887, 0.78301632, -0.57813853, 0.90061486, -0.6039083,
  1.4584825, 0.48184958, 0.050518315, -0.86133623, 0.46756604,
  -0.34427235, -0.48883185, -0.52705336, 0.071463354, 0.291114,
  0.54250556, -0.14769417, 0.34576085, -1.1554359, 0.48865154,
  -0.0708179, -0.53388667, -0.41234916, 0.54896128, -0.41509354,
  -0.26036635, 0.45644525, -0.86515337, 1.059709, -0.69808888,
  -0.27404064, 0.91868722, -0.42226219, 1.1571254, -0.66618425,
  0.85616976, -0.10898238, 1.8312669, 1.9168009, 0.95263427,
  -0.66954088, -2.5000508, 0.0097367316, 0.59842789, -0.4055312,
  -0.28039464, -1.1552193, -0.44988093, 1.0339806, 1.4228126,
  -0.15981735, 0.91068882, 0.937941, -0.022047963, 0.57403058,
  -1.5190886, -0.026668791, 0.67653918, -1.1089139, -0.25568223,
  -0.74850446, -1.0819204, -0.053736418, 0.61028403, -0.30973184,
  0.93028647, -0.45402437, -0.23857649, -0.67801595, -0.21319923,
  -0.42729115, 0.58751529, 0.41827306, 0.44706985, -0.13755475,
  0.06248102, 0.36523637, 0.196562, 0.75903279, -0.62540609,
  0.30355647, 0.62414455, 0.5246768, -0.80396622, 0.099127062,
  0.57697171, 1.4798356, 0.700252, -0.57986635, -0.70837408,
  0.3322497, 0.61450732, 0.32284394, 0.59498912, 0.0980741,
  -0.033397324, -1.9149438, 0.56551051, -0.13787846, 0.1752156,
  -2.4528055, -0.73667818, -0.4858267, -0.079692155, -0.93621141,
  -0.57857096, -0.87833494, -1.6286892, 0.28239998, -0.21837424,
  0.74370587, 1.4016255, -0.39911032, 0.80392718, -0.10104089,
  -0.57161093, -1.1444131, -0.58587772, 0.75350517, 1.2311597,
  0.18670267, -0.39092937, -0.524237, -1.3447917, 0.95053643,
  1.2299371, -1.4619535, -0.524842, 1.1523079, 0.70925385,
  0.8701852, 1.0925717, -2.1966808, 1.354014, 0.50475496,
  -0.5461629, -0.61918557, -0.67844951, 0.41530246, 0.56772596,
  -0.7744, -1.9410986, -1.3199403, -1.5608894, -1.6399151,
  -0.7562021, 0.12919585, 0.68107688, 0.45687297, 0.36203983,
  0.37531805, 0.075447783, -0.15210338, 0.92932707, 0.55283642,
  -0.24732016, -0.99229181, 0.25516906, -0.24668892, -0.027991815,
  0.28200704, 0.40749463, -0.63689822, -0.031900153, 0.44805628,
  -0.44419768, 0.18795815, 0.50840276, 0.33850572, -0.62944925,
  0.203377, 0.50670809, -0.40133235, -0.28117022, -0.77831221,
  -0.75649738, 0.28465283, 0.45275444, 0.46111289, -1.356173,
  -0.52087992, 1.0353441, -0.05467378, 0.43937582, -1.0188266,
  0.41401917, -1.3894036, -0.44117442, -1.3679861, -0.19712882,
  -0.45528567, -1.3517947, 0.36220342, 0.18013303, 0.42133796,
  1.7756187, -0.099517472, -0.10388532, -1.0375099, -0.39499334,
  0.15606719, -0.43368223, 0.55011976, 0.57476652, -1.1304855,
  -1.9386814, 0.30703431, -1.1049422, -0.38901764, 0.12620147,
  0.060162134, -0.15780719, -1.3904487, 0.2918407, 0.29773012,
  1.4958123, 0.67073905, 0.28815868, -1.2824059, -0.13709801,
  -0.053694203, -0.32756045, 0.68203878, -2.1988378, 0.32561013,
  1.4705036, 1.5915283, -1.9521796, 0.94554996, -1.1086403,
  -1.7689492, -1.2679074, -1.1918948, 1.4084946, 0.32432973,
  0.50779897, 0.655986, 0.56159413, 0.27756819, 1.4832996,
  -0.41274193, 0.14574899, 1.2513759, 1.3983657, 0.43318009,
  -0.074419983, 0.48071116, -1.0885584, 0.98223734, 0.13559651,
  -0.56711966, 0.30190265, 0.79314643, 0.53339386, 1.2450264,
  0.15510404, 0.30358043, 0.27394935, -0.36636057, 1.0358714,
  -0.60861224, -1.0947859, -1.0526221, 0.75958014, -0.031067021,
  -0.56709677, -0.54400313, -1.5468143, -0.7717399, 0.14885461,
  0.21865022, -1.2472123, -0.14754711, -0.69165879, 0.62976086,
  1.876812, 0.75509346, -0.22724648, 0.22290361, 0.27829552,
  -0.92869425, -1.7870677, 2.0427265, 0.098328471, -1.0530777,
  -0.2084478, 0.079888165, -0.3923763, -1.5103698, 0.15725662,
  0.71393263, -1.3143785, 0.44322842, -1.6033342, 0.62333715,
  1.0326148, 0.063673526, 0.064648084, 0.44999003, -0.87622279,
  -1.5201892, -1.3605237, 0.87684894, -0.0055884346, 0.19594435,
  0.62123585, 0.25344816, -0.052200343, 2.3415816, 1.1298058,
  -0.12990458, -0.65987462, 0.066734657, -2.4913518, -0.76975185,
  0.65367877, -2.0935, 0.82288122, 0.35198015, -1.699698,
  -0.2273857, -0.74918926, -1.1049024, 1.492707, 2.0464721,
  -0.82586962, -0.12498161, -0.61596626, 1.626615, -1.379107,
  -1.6438935, 0.10970536, 1.8789687, -0.40014568, 1.1990604,
  -0.385764, 2.0822856, 1.3263531, 0.777342, -0.68133491,
  -0.90685785, 0.55701774, -0.023850318, -0.7610144, 0.3934879,
  -0.50441658, -0.44303206, -1.0829151, -0.096469335, -0.43055332,
  -0.032968197, -0.58523607, -0.043786351, -1.1356562, -0.62399179,
  0.24792244, 1.111316, -0.66617358, -0.34005374, 0.12505485,
  0.8952933, -0.38405225, -0.72432685, -0.050964475, -0.14853798,
  -0.16319895, 0.16998544, 0.33393088, 1.0153599, -0.27657792,
  0.1973816, -0.63075083, 0.51735812, 0.44544536, -0.62331957,
  -0.12920141, -0.38751546, 1.7053338, 1.013146, 0.36652914,
  -0.5000155, 0.52411056, -0.013150868, 0.4038415, 1.6291922,
  -0.13287351, -0.28098896, 0.75759661, 0.14342684, 0.12172627,
  0.59850293, -1.2664316, 0.74663711, -0.3466509, 0.74261689,
  0.825396, 1.8510424, -1.0311929, 0.61890185, -0.21449691,
  -0.56714064, 0.469627, -0.515346, -1.2727501, 0.44790232,
  -0.29501498, -0.418588, -0.74174225, 0.23915833, -0.39610857,
  -0.091230415, 0.51219112, -0.12112273, -0.72605729, -0.19070964,
  -0.18578734, -0.50862229, -1.0083572, -0.96501005, -0.26345515,
  -0.33980477, 0.42487332, 1.0611652, -0.39002085, 0.1591837,
  1.0149881, 0.79961908, 0.15606202, 1.130113, -0.10089864,
  -0.17781799, 0.10652702, 0.050984714, 0.2316702, 0.31539926,
  0.4768163, -0.32985109, 0.3125855, -0.67591381, -0.40845346,
  -1.013646, -0.645846, -0.84476036, 0.34922516, 1.3592236,
  -0.88678461, 0.76191825, 0.18694387, -0.2145683, 0.015519179,
  0.78305632, -0.19995014, -0.70244461, -0.49496126, -0.24468817,
  -1.3024451, 1.4924526, -0.034579754, 0.2546297, -0.99022084,
  0.32933992, -0.30153155, -0.65787584, -0.50973529, -0.58875954,
  -1.0141761, -0.43744406, -0.32912132, 0.83254653, 0.89890617,
  -0.58366323, -0.13678552, 0.21559985, 0.16921048, -0.1194713,
  0.53984427, 0.00060573453, -0.068004556, -0.99109763, -0.90111977,
  -0.09610761, 0.32379821, -0.15327942, 0.22004586, -0.24348426,
  0.2783421, -0.85245478, 0.016847515, -0.74613082, -1.531111,
  0.96631485, 0.99583489, 0.93300033, 0.43044171, 0.13473754,
  1.0965755, 0.98267627, -0.47384951, 0.13582085, -0.539754,
  -0.37137538, -0.48380217, 0.64333224, 0.45817587, -0.14221774,
  1.0665677, -0.19133271, 0.41391271, -0.073373407, 0.25525165,
